{"learner":{"attributes":{"scikit_learn":"{\"_estimator_type\": \"classifier\"}"},"feature_names":[],"feature_types":[],"gradient_booster":{"model":{"gbtree_model_param":{"num_parallel_tree":"1","num_trees":"200"},"iteration_indptr":[0,1,2,3,4,5,6,7,8,9,10,11,12,13,14,15,16,17,18,19,20,21,22,23,24,25,26,27,28,29,30,31,32,33,34,35,36,37,38,39,40,41,42,43,44,45,46,47,48,49,50,51,52,53,54,55,56,57,58,59,60,61,62,63,64,65,66,67,68,69,70,71,72,73,74,75,76,77,78,79,80,81,82,83,84,85,86,87,88,89,90,91,92,93,94,95,96,97,98,99,100,101,102,103,104,105,106,107,108,109,110,111,112,113,114,115,116,117,118,119,120,121,122,123,124,125,126,127,128,129,130,131,132,133,134,135,136,137,138,139,140,141,142,143,144,145,146,147,148,149,150,151,152,153,154,155,156,157,158,159,160,161,162,163,164,165,166,167,168,169,170,171,172,173,174,175,176,177,178,179,180,181,182,183,184,185,186,187,188,189,190,191,192,193,194,195,196,197,198,199,200],"tree_info":[0,0,0,0,0,0,0,0,0,0,0,0,0,0,0,0,0,0,0,0,0,0,0,0,0,0,0,0,0,0,0,0,0,0,0,0,0,0,0,0,0,0,0,0,0,0,0,0,0,0,0,0,0,0,0,0,0,0,0,0,0,0,0,0,0,0,0,0,0,0,0,0,0,0,0,0,0,0,0,0,0,0,0,0,0,0,0,0,0,0,0,0,0,0,0,0,0,0,0,0,0,0,0,0,0,0,0,0,0,0,0,0,0,0,0,0,0,0,0,0,0,0,0,0,0,0,0,0,0,0,0,0,0,0,0,0,0,0,0,0,0,0,0,0,0,0,0,0,0,0,0,0,0,0,0,0,0,0,0,0,0,0,0,0,0,0,0,0,0,0,0,0,0,0,0,0,0,0,0,0,0,0,0,0,0,0,0,0,0,0,0,0,0,0,0,0,0,0,0,0],"trees":[{"base_weights":[8.3192956E-4,1.050955E0,-5.39827E-1,-1.3582659E-1,2.143421E0,2.490056E-1,-7.607413E-1,5.665062E0,-1.78697E-1,1.2752935E1,1.9781675E0,8.2936287E-1,-3.6905357E-1,-5.57001E-1,-9.037101E-1,1.0256802E1,1.0656993E0,2.1852681E-1,-3.6445737E-1,1.842903E1,2.2279437E0,4.851771E0,1.6171843E0,2.459813E0,7.090967E-1,-6.180147E-2,-6.208284E-1,-2.1047723E-2,-7.314572E-1,-6.8716717E-1,-9.437642E-1,1.557397E1,3.4384683E-2,-6.7977375E-1,1.8399972E0,4.148724E-1,-2.7872193E-1,-4.465988E-2,-5.432047E-1,2.3352097E1,2.0448012E0,3.2451458E0,9.8303616E-1,1.3940958E0,6.1199694E0,2.0572224E0,4.4159725E-1,1.1274536E0,3.1115837E0,1.2066768E0,4.4829777E-1,1.248624E0,-1.2067654E-1,-6.5448426E-2,-6.669449E-1,2.5466883E-1,-2.1461682E-1,-5.810767E-1,-8.3980674E-1,-5.488462E-1,-8.304798E-1,-8.614361E-1,-9.768532E-1,1.9396094E0,2.5936065E-2,-3.2734737E-2,1.152095E-1,-8.478148E-2,3.814076E-2,3.772715E-1,-2.4336854E-2,5.9645463E-2,-7.2317296E-3,-3.817821E-3,-5.7682134E-2,3.206937E-2,-2.53501E-2,-1.4156389E-2,-7.098807E-2,2.574752E0,9.580831E-2,4.1076308E-1,1.2423905E-1,4.2126772E-1,2.015807E-2,2.1708082E-1,3.388657E-2,6.8929344E-2,3.4766215E-1,9.194111E-1,1.9718628E-1,6.900855E-2,3.2017472E-1,1.0288643E-1,-3.7028417E-3,1.9715463E-1,5.5837512E-2,1.7731129E-1,4.2830917E-1,1.6959214E-1,7.241349E-2,7.6578066E-2,1.0114206E-2,5.902755E-2,2.1018954E-1,1.2871714E-2,-3.0614665E-2,6.210894E-2,-2.4031766E-2,-3.8734343E-2,-7.4176334E-2,5.9568007E-2,-5.0932015E-3,2.7684257E-3,-3.6622934E-2,-3.0219525E-2,-6.405287E-2,-6.881021E-2,-8.818273E-2,-3.63209E-2,-7.426268E-2,-6.895302E-2,-8.895959E-2,-7.416817E-2,-9.231406E-2,-8.9850776E-2,-9.915776E-2],"categories":[],"categories_nodes":[],"categories_segments":[],"categories_sizes":[],"default_left":[0,0,0,0,0,0,0,0,0,0,0,0,0,0,0,0,0,0,0,0,0,0,0,0,0,0,0,0,0,0,0,0,0,0,0,0,0,0,0,0,0,0,0,0,0,0,0,0,0,0,0,0,0,0,0,0,0,0,0,0,0,0,0,0,0,0,0,0,0,0,0,0,0,0,0,0,0,0,0,0,0,0,0,0,0,0,0,0,0,0,0,0,0,0,0,0,0,0,0,0,0,0,0,0,0,0,0,0,0,0,0,0,0,0,0,0,0,0,0,0,0,0,0,0,0,0,0],"id":0,"left_children":[1,3,5,7,9,11,13,15,17,19,21,23,25,27,29,31,33,35,37,39,41,43,45,47,49,51,53,55,57,59,61,63,65,67,69,71,73,75,77,79,81,83,85,87,89,91,93,95,97,99,101,103,105,107,109,111,113,115,117,119,121,123,125,-1,-1,-1,-1,-1,-1,-1,-1,-1,-1,-1,-1,-1,-1,-1,-1,-1,-1,-1,-1,-1,-1,-1,-1,-1,-1,-1,-1,-1,-1,-1,-1,-1,-1,-1,-1,-1,-1,-1,-1,-1,-1,-1,-1,-1,-1,-1,-1,-1,-1,-1,-1,-1,-1,-1,-1,-1,-1,-1,-1,-1,-1,-1,-1],"loss_changes":[9.370068E4,7.272309E4,1.8985492E4,6.687156E3,5.1180453E4,8.550174E3,2.4786328E3,4.1551826E3,1.9694608E3,2.6707969E4,2.9824781E4,2.4088154E3,8.929684E2,3.2817217E3,4.331328E2,5.358787E3,1.3595377E2,8.3047205E2,1.0395215E3,2.340375E4,1.9689935E2,1.4063258E4,1.3216797E4,7.2948926E2,1.4853296E3,4.0135315E2,1.6245459E2,4.6011942E2,4.3095898E2,1.5437305E2,1.14125E2,3.7914912E3,1.442293E1,5.9150286E0,2.800027E2,5.3947656E2,1.7266048E2,4.9766522E2,7.808208E2,1.1962992E4,1.07903564E2,2.5393652E2,5.472551E1,1.2634867E3,2.9918258E4,2.9088625E4,1.9565011E3,1.3284286E2,8.8028906E2,9.282251E2,8.281035E2,1.2441052E2,2.3027496E2,5.868112E1,1.22258545E2,3.7062396E2,1.8608278E2,1.8371509E2,9.748828E1,1.4280981E2,3.1333496E1,8.87832E1,3.3828125E1,0E0,0E0,0E0,0E0,0E0,0E0,0E0,0E0,0E0,0E0,0E0,0E0,0E0,0E0,0E0,0E0,0E0,0E0,0E0,0E0,0E0,0E0,0E0,0E0,0E0,0E0,0E0,0E0,0E0,0E0,0E0,0E0,0E0,0E0,0E0,0E0,0E0,0E0,0E0,0E0,0E0,0E0,0E0,0E0,0E0,0E0,0E0,0E0,0E0,0E0,0E0,0E0,0E0,0E0,0E0,0E0,0E0,0E0,0E0,0E0,0E0,0E0,0E0,0E0],"parents":[2147483647,0,0,1,1,2,2,3,3,4,4,5,5,6,6,7,7,8,8,9,9,10,10,11,11,12,12,13,13,14,14,15,15,16,16,17,17,18,18,19,19,20,20,21,21,22,22,23,23,24,24,25,25,26,26,27,27,28,28,29,29,30,30,31,31,32,32,33,33,34,34,35,35,36,36,37,37,38,38,39,39,40,40,41,41,42,42,43,43,44,44,45,45,46,46,47,47,48,48,49,49,50,50,51,51,52,52,53,53,54,54,55,55,56,56,57,57,58,58,59,59,60,60,61,61,62,62],"right_children":[2,4,6,8,10,12,14,16,18,20,22,24,26,28,30,32,34,36,38,40,42,44,46,48,50,52,54,56,58,60,62,64,66,68,70,72,74,76,78,80,82,84,86,88,90,92,94,96,98,100,102,104,106,108,110,112,114,116,118,120,122,124,126,-1,-1,-1,-1,-1,-1,-1,-1,-1,-1,-1,-1,-1,-1,-1,-1,-1,-1,-1,-1,-1,-1,-1,-1,-1,-1,-1,-1,-1,-1,-1,-1,-1,-1,-1,-1,-1,-1,-1,-1,-1,-1,-1,-1,-1,-1,-1,-1,-1,-1,-1,-1,-1,-1,-1,-1,-1,-1,-1,-1,-1,-1,-1,-1],"split_conditions":[3.6952335E-1,5E-1,4.0519083E-1,8.21375E-2,8.21375E-2,6.2273085E-1,6.000558E-1,5.0028914E-1,3.531565E-1,5.0028914E-1,3.1184834E-1,2.779375E-1,7.3776E-1,4.9172917E-1,3.2720217E-1,2.8573874E-1,3.5095093E-1,5.3630084E-1,-2.7595425E-1,2.8573874E-1,2.9842466E-1,3.375342E-1,7.479907E-1,3.7769333E-1,1.7999348E-1,2.779375E-1,3.1184834E-1,3.3373043E-1,5.545975E-1,4.8860833E-1,-2.9883432E-1,6.0156006E-1,5.0011086E-1,2.0948163E-1,5.970239E-1,5.0333834E-1,5.559742E-1,2.3589666E-1,-4.1039193E-1,6.06062E-1,3.597575E-1,5.653858E-1,2.9806304E-1,5.726783E-1,6.290613E-1,3.1547606E-1,4.5076418E-1,5.2243584E-1,4.440375E-1,4.338652E-1,5.953133E-1,6.426675E-1,7.2971165E-1,2.7034333E-1,2.724326E-1,4.7082084E-1,-5.8679396E-1,4.7082084E-1,-4.1039193E-1,7.619225E-1,6.7944586E-1,7.3776E-1,-6.2378544E-1,1.9396094E0,2.5936065E-2,-3.2734737E-2,1.152095E-1,-8.478148E-2,3.814076E-2,3.772715E-1,-2.4336854E-2,5.9645463E-2,-7.2317296E-3,-3.817821E-3,-5.7682134E-2,3.206937E-2,-2.53501E-2,-1.4156389E-2,-7.098807E-2,2.574752E0,9.580831E-2,4.1076308E-1,1.2423905E-1,4.2126772E-1,2.015807E-2,2.1708082E-1,3.388657E-2,6.8929344E-2,3.4766215E-1,9.194111E-1,1.9718628E-1,6.900855E-2,3.2017472E-1,1.0288643E-1,-3.7028417E-3,1.9715463E-1,5.5837512E-2,1.7731129E-1,4.2830917E-1,1.6959214E-1,7.241349E-2,7.6578066E-2,1.0114206E-2,5.902755E-2,2.1018954E-1,1.2871714E-2,-3.0614665E-2,6.210894E-2,-2.4031766E-2,-3.8734343E-2,-7.4176334E-2,5.9568007E-2,-5.0932015E-3,2.7684257E-3,-3.6622934E-2,-3.0219525E-2,-6.405287E-2,-6.881021E-2,-8.818273E-2,-3.63209E-2,-7.426268E-2,-6.895302E-2,-8.895959E-2,-7.416817E-2,-9.231406E-2,-8.9850776E-2,-9.915776E-2],"split_indices":[79,90,82,79,79,79,79,82,69,82,82,82,79,82,69,80,78,83,59,80,80,78,78,1,69,82,82,69,82,82,59,78,70,47,78,66,82,66,46,78,82,83,69,81,78,78,81,53,27,22,53,14,66,82,69,79,59,79,46,79,79,79,46,0,0,0,0,0,0,0,0,0,0,0,0,0,0,0,0,0,0,0,0,0,0,0,0,0,0,0,0,0,0,0,0,0,0,0,0,0,0,0,0,0,0,0,0,0,0,0,0,0,0,0,0,0,0,0,0,0,0,0,0,0,0,0,0],"split_type":[0,0,0,0,0,0,0,0,0,0,0,0,0,0,0,0,0,0,0,0,0,0,0,0,0,0,0,0,0,0,0,0,0,0,0,0,0,0,0,0,0,0,0,0,0,0,0,0,0,0,0,0,0,0,0,0,0,0,0,0,0,0,0,0,0,0,0,0,0,0,0,0,0,0,0,0,0,0,0,0,0,0,0,0,0,0,0,0,0,0,0,0,0,0,0,0,0,0,0,0,0,0,0,0,0,0,0,0,0,0,0,0,0,0,0,0,0,0,0,0,0,0,0,0,0,0,0],"sum_hessian":[1.6503419E5,5.6089832E4,1.0894436E5,2.6884832E4,2.9205E4,2.3835025E4,8.5109336E4,1.962678E2,2.6688564E4,4.4675113E2,2.875825E4,1.2292258E4,1.1542767E4,3.5097664E4,5.001167E4,9.759976E1,9.8668045E1,8.50391E3,1.8184654E4,2.897428E2,1.5700832E2,3.2080618E3,2.5550188E4,8.430851E2,1.1449173E4,5.1991978E3,6.343569E3,8.619255E3,2.6478408E4,7.809524E3,4.220215E4,6.385974E1,3.374002E1,3.0357117E1,6.831093E1,6.096706E3,2.4072036E3,6.520341E3,1.1664314E4,2.2247049E2,6.727232E1,8.55222E1,7.1486115E1,8.614537E2,2.3466082E3,1.8590691E4,6.959495E3,2.778433E2,5.652418E2,3.9360093E3,7.5131636E3,2.226782E2,4.9765195E3,4.8654477E2,5.8570244E3,3.5551062E3,5.0641484E3,1.1091149E4,1.538726E4,3.9764263E3,3.833098E3,1.2106703E4,3.0095445E4,5.089194E1,1.29678E1,2.6024626E1,7.7153964E0,2.638072E1,3.9763966E0,3.501603E1,3.3294903E1,4.44119E3,1.6555164E3,1.3328347E3,1.0743689E3,2.371327E3,4.1490137E3,3.421452E3,8.242862E3,2.0083769E2,2.1632784E1,1.7686062E1,4.9586258E1,6.460161E1,2.0920593E1,2.4303497E1,4.7182617E1,6.4462134E2,2.168323E2,1.3470785E3,9.995296E2,8.472217E3,1.0118475E4,3.1245574E3,3.8349377E3,1.1089398E2,1.6694931E2,2.6499417E2,3.0024762E2,1.9531823E3,1.9828271E3,3.9236648E3,3.589499E3,1.266512E2,9.602701E1,2.1226243E3,2.8538953E3,9.82526E1,3.8829214E2,1.2377275E3,4.619297E3,1.6797605E3,1.8753457E3,1.9494432E3,3.1147056E3,1.9500071E3,9.141142E3,3.3413896E3,1.204587E4,2.032354E3,1.9440721E3,1.1363591E3,2.6967388E3,4.121268E3,7.985435E3,4.7711416E3,2.5324305E4],"tree_param":{"num_deleted":"0","num_feature":"92","num_nodes":"127","size_leaf_vector":"1"}},{"base_weights":[-1.8029794E-2,7.2439885E-1,-5.701304E-1,-1.7719492E-1,1.3895129E0,9.923109E-2,-7.734059E-1,1.0721694E-1,-4.9151453E-1,2.1659126E0,9.4226176E-1,5.048321E-1,-4.3623433E-1,-5.9369457E-1,-9.010155E-1,2.0169046E0,5.7380266E-2,-1.3143213E-1,-6.0831875E-1,3.6418588E0,1.6295289E0,1.5523533E0,6.1503947E-1,9.8304564E-1,2.4640132E-1,-2.371262E-1,-7.021504E-1,-1.08621076E-1,-7.2749686E-1,-6.86426E-1,-9.401699E-1,-7.031811E-1,3.048747E0,4.0603495E-1,-1.4837174E-1,1.494903E-1,-4.0969253E-1,-2.7670917E-1,-7.1479577E-1,1.0913023E0,4.406568E0,4.6970767E-1,1.8840265E0,5.069912E-1,1.8273484E0,1.2307442E0,2.8375494E-1,7.0065284E-1,1.6290032E0,1.1656991E0,1.5387873E-1,6.75399E-1,-2.865812E-1,3.5432938E-1,-7.224902E-1,2.4816665E-1,-2.2661296E-1,-5.84094E-1,-8.530462E-1,-3.7216228E-1,-7.7759004E-1,-7.6017666E-1,-9.6456134E-1,-8.2448296E-2,1.1508628E-2,3.8018745E-1,-1.9529492E-2,9.500199E-2,2.315553E-2,3.2163497E-2,-3.148008E-2,5.7731178E-2,-7.6734195E-3,-6.736774E-3,-5.0591726E-2,-1.0370422E-2,-5.9836984E-2,-3.552612E-2,-8.0804825E-2,5.582541E-2,2.353196E-1,5.6630415E-1,1.00809194E-1,2.229339E-2,1.7638075E-1,2.266546E-1,4.5723744E-2,-6.972951E-3,9.785607E-2,2.4774067E-1,9.215985E-2,1.6017579E-1,3.0446867E-2,7.9800576E-2,8.068224E-5,1.5588687E-1,5.317497E-2,1.15659945E-1,2.910969E-1,4.5988016E-2,1.6276164E-1,4.500295E-2,-1.0110105E-2,-5.91339E-4,1.1718414E-1,-5.8155805E-3,-4.3779667E-2,-1.5042165E-2,9.406896E-2,-4.75776E-2,-7.7364616E-2,7.241928E-3,8.380419E-2,-5.4371464E-3,-3.8389694E-2,-4.548133E-2,-6.664343E-2,-7.2043486E-2,-9.034447E-2,-2.7225394E-2,-7.112878E-2,-5.8378663E-2,-8.371053E-2,-4.1265767E-2,-8.014749E-2,-8.813515E-2,-9.861478E-2],"categories":[],"categories_nodes":[],"categories_segments":[],"categories_sizes":[],"default_left":[0,0,0,0,0,0,0,0,0,0,0,0,0,0,0,0,0,0,0,0,0,0,0,0,0,0,0,0,0,0,0,0,0,0,0,0,0,0,0,0,0,0,0,0,0,0,0,0,0,0,0,0,0,0,0,0,0,0,0,0,0,0,0,0,0,0,0,0,0,0,0,0,0,0,0,0,0,0,0,0,0,0,0,0,0,0,0,0,0,0,0,0,0,0,0,0,0,0,0,0,0,0,0,0,0,0,0,0,0,0,0,0,0,0,0,0,0,0,0,0,0,0,0,0,0,0,0],"id":1,"left_children":[1,3,5,7,9,11,13,15,17,19,21,23,25,27,29,31,33,35,37,39,41,43,45,47,49,51,53,55,57,59,61,63,65,67,69,71,73,75,77,79,81,83,85,87,89,91,93,95,97,99,101,103,105,107,109,111,113,115,117,119,121,123,125,-1,-1,-1,-1,-1,-1,-1,-1,-1,-1,-1,-1,-1,-1,-1,-1,-1,-1,-1,-1,-1,-1,-1,-1,-1,-1,-1,-1,-1,-1,-1,-1,-1,-1,-1,-1,-1,-1,-1,-1,-1,-1,-1,-1,-1,-1,-1,-1,-1,-1,-1,-1,-1,-1,-1,-1,-1,-1,-1,-1,-1,-1,-1,-1],"loss_changes":[6.859849E4,4.280137E4,1.3059686E4,2.7089219E3,1.4260898E4,4.856274E3,1.6878477E3,1.5139406E3,6.0533105E2,1.1878805E4,5.202203E3,1.5720962E3,5.1009106E2,1.9842607E3,3.610664E2,1.1376609E3,1.1123317E3,2.7575586E2,3.8355273E2,7.7982305E3,3.2496973E3,2.6145293E3,3.4602837E3,8.129844E2,7.0243695E2,2.4896414E2,8.891516E1,2.7837616E2,4.3094043E2,1.9013379E2,1.5909375E2,1.1219357E1,7.178064E2,5.459638E2,7.6288965E2,1.6997488E2,5.8339172E1,1.4702898E2,2.755171E2,6.203059E2,1.3135652E4,6.328663E2,4.9276113E3,5.157927E2,4.2387227E3,2.0391172E3,1.6052478E3,4.495786E2,8.18353E2,2.4547461E2,5.6687476E2,9.596011E1,1.8061777E2,2.3405512E1,5.072461E1,1.7031888E2,1.3458623E2,1.1880835E2,8.4728516E1,5.0509125E1,5.892627E1,6.20896E1,5.6710938E1,0E0,0E0,0E0,0E0,0E0,0E0,0E0,0E0,0E0,0E0,0E0,0E0,0E0,0E0,0E0,0E0,0E0,0E0,0E0,0E0,0E0,0E0,0E0,0E0,0E0,0E0,0E0,0E0,0E0,0E0,0E0,0E0,0E0,0E0,0E0,0E0,0E0,0E0,0E0,0E0,0E0,0E0,0E0,0E0,0E0,0E0,0E0,0E0,0E0,0E0,0E0,0E0,0E0,0E0,0E0,0E0,0E0,0E0,0E0,0E0,0E0,0E0,0E0,0E0],"parents":[2147483647,0,0,1,1,2,2,3,3,4,4,5,5,6,6,7,7,8,8,9,9,10,10,11,11,12,12,13,13,14,14,15,15,16,16,17,17,18,18,19,19,20,20,21,21,22,22,23,23,24,24,25,25,26,26,27,27,28,28,29,29,30,30,31,31,32,32,33,33,34,34,35,35,36,36,37,37,38,38,39,39,40,40,41,41,42,42,43,43,44,44,45,45,46,46,47,47,48,48,49,49,50,50,51,51,52,52,53,53,54,54,55,55,56,56,57,57,58,58,59,59,60,60,61,61,62,62],"right_children":[2,4,6,8,10,12,14,16,18,20,22,24,26,28,30,32,34,36,38,40,42,44,46,48,50,52,54,56,58,60,62,64,66,68,70,72,74,76,78,80,82,84,86,88,90,92,94,96,98,100,102,104,106,108,110,112,114,116,118,120,122,124,126,-1,-1,-1,-1,-1,-1,-1,-1,-1,-1,-1,-1,-1,-1,-1,-1,-1,-1,-1,-1,-1,-1,-1,-1,-1,-1,-1,-1,-1,-1,-1,-1,-1,-1,-1,-1,-1,-1,-1,-1,-1,-1,-1,-1,-1,-1,-1,-1,-1,-1,-1,-1,-1,-1,-1,-1,-1,-1,-1,-1,-1,-1,-1,-1],"split_conditions":[4.1546667E-1,5E-1,4.0664083E-1,5.7281584E-1,3.8068417E-1,6.6064835E-1,6.2273085E-1,8.21375E-2,3.754674E-1,1.7034833E-1,3.1101087E-1,1.8790217E-1,7.8509665E-1,4.82435E-1,3.2720217E-1,4.010071E-1,3.2748914E-1,6.151375E-1,3.9009565E-1,3.7360474E-1,2.2618286E-1,2.1000122E-1,1.5526916E-1,5.8229E-1,2.8987083E-1,2.8425834E-1,2.779375E-1,2.4038261E-1,5.5737E-1,3.265587E-1,3.0693042E-1,3.554541E-1,6.0156006E-1,1.43851E-1,2.7444348E-1,2.901961E-1,1.8380417E-1,6.3332164E-1,3.6835E-1,5.849417E-1,6.427661E-1,5.849417E-1,7.851843E-1,5.436392E-1,6.6973513E-1,6.742212E-1,3.4269565E-1,4.813875E-1,5.8495665E-1,4.443325E-1,6.072367E-1,5.8581835E-1,7.5761336E-1,7.022167E-1,2.724326E-1,5.6824833E-1,4.9777E-1,3.4046522E-1,4.6645218E-1,5.246275E-1,3.5329783E-1,2.5008914E-1,3.9341304E-1,-8.2448296E-2,1.1508628E-2,3.8018745E-1,-1.9529492E-2,9.500199E-2,2.315553E-2,3.2163497E-2,-3.148008E-2,5.7731178E-2,-7.6734195E-3,-6.736774E-3,-5.0591726E-2,-1.0370422E-2,-5.9836984E-2,-3.552612E-2,-8.0804825E-2,5.582541E-2,2.353196E-1,5.6630415E-1,1.00809194E-1,2.229339E-2,1.7638075E-1,2.266546E-1,4.5723744E-2,-6.972951E-3,9.785607E-2,2.4774067E-1,9.215985E-2,1.6017579E-1,3.0446867E-2,7.9800576E-2,8.068224E-5,1.5588687E-1,5.317497E-2,1.15659945E-1,2.910969E-1,4.5988016E-2,1.6276164E-1,4.500295E-2,-1.0110105E-2,-5.91339E-4,1.1718414E-1,-5.8155805E-3,-4.3779667E-2,-1.5042165E-2,9.406896E-2,-4.75776E-2,-7.7364616E-2,7.241928E-3,8.380419E-2,-5.4371464E-3,-3.8389694E-2,-4.548133E-2,-6.664343E-2,-7.2043486E-2,-9.034447E-2,-2.7225394E-2,-7.112878E-2,-5.8378663E-2,-8.371053E-2,-4.1265767E-2,-8.014749E-2,-8.813515E-2,-9.861478E-2],"split_indices":[79,90,82,82,82,79,79,79,43,79,69,43,79,82,69,78,43,82,69,78,78,78,79,27,82,82,82,43,82,56,56,78,78,22,56,22,66,82,56,81,78,81,78,81,78,78,56,53,1,14,66,27,66,14,69,27,79,43,43,82,43,43,43,0,0,0,0,0,0,0,0,0,0,0,0,0,0,0,0,0,0,0,0,0,0,0,0,0,0,0,0,0,0,0,0,0,0,0,0,0,0,0,0,0,0,0,0,0,0,0,0,0,0,0,0,0,0,0,0,0,0,0,0,0,0,0,0],"split_type":[0,0,0,0,0,0,0,0,0,0,0,0,0,0,0,0,0,0,0,0,0,0,0,0,0,0,0,0,0,0,0,0,0,0,0,0,0,0,0,0,0,0,0,0,0,0,0,0,0,0,0,0,0,0,0,0,0,0,0,0,0,0,0,0,0,0,0,0,0,0,0,0,0,0,0,0,0,0,0,0,0,0,0,0,0,0,0,0,0,0,0,0,0,0,0,0,0,0,0,0,0,0,0,0,0,0,0,0,0,0,0,0,0,0,0,0,0,0,0,0,0,0,0,0,0,0,0],"sum_hessian":[1.6735412E5,7.137432E4,9.5979805E4,3.0300832E4,4.1073484E4,2.2358035E4,7.362177E4,1.5907554E4,1.4393278E4,1.5011183E4,2.6062303E4,1.2721722E4,9.636313E3,3.0572494E4,4.3049277E4,4.0357367E2,1.55039795E4,3.5258784E3,1.08674E4,3.999667E3,1.1011516E4,9.09721E3,1.6965094E4,4.462072E3,8.25965E3,5.5114414E3,4.1248716E3,6.6102305E3,2.3962266E4,6.6456426E3,3.6403637E4,1.1107707E2,2.924966E2,5.7534927E3,9.750487E3,1.7547767E3,1.7711016E3,2.6421978E3,8.225202E3,9.23135E2,3.076532E3,1.9819642E3,9.029552E3,1.8952979E3,7.201912E3,5.9339355E3,1.1031157E4,3.1062148E3,1.3558568E3,7.5421594E2,7.505434E3,2.8269016E2,5.228751E3,7.76037E1,4.047268E3,1.6424954E3,4.967735E3,1.1188439E4,1.2773825E4,1.4954749E3,5.150168E3,4.3482817E3,3.2055354E4,9.673E1,1.4347074E1,2.3724626E2,5.5250347E1,1.3961603E3,4.357332E3,2.5495256E3,7.2009614E3,6.0641364E2,1.1483632E3,3.8898093E2,1.3821206E3,1.7189722E3,9.232255E2,1.6949888E3,6.530214E3,6.500034E2,2.7313162E2,2.2456216E3,8.309103E2,1.6655334E3,3.1643066E2,7.120082E3,1.9094695E3,8.5297614E2,1.0423218E3,4.19175E3,3.0101619E3,4.2363604E3,1.6975756E3,3.9146191E3,7.116538E3,5.0944394E2,2.5967708E3,9.9215155E2,3.6370523E2,2.9913196E2,4.5508398E2,3.4720247E3,4.0334094E3,1.1957489E2,1.6311526E2,2.0832253E3,3.145526E3,4.210355E1,3.5500145E1,6.968426E2,3.3504255E3,1.2663284E3,3.7616696E2,2.3717644E3,2.5959707E3,4.3558857E3,6.8325537E3,3.5219592E3,9.251866E3,1.1565509E3,3.3892386E2,1.2125316E3,3.9376362E3,4.6302014E2,3.8852617E3,6.611543E3,2.544381E4],"tree_param":{"num_deleted":"0","num_feature":"92","num_nodes":"127","size_leaf_vector":"1"}},{"base_weights":[-2.258288E-2,5.5750406E-1,-5.887806E-1,-1.944638E-1,1.0469087E0,1.931572E-2,-7.725554E-1,1.2066876E-2,-5.8855015E-1,1.6240608E0,7.3423046E-1,3.5022554E-1,-4.1610542E-1,-5.053866E-1,-8.4972817E-1,4.0763423E-1,-1.6320182E-1,-3.3847946E-1,-7.10913E-1,5.9382457E-1,1.8779154E0,1.1770781E0,3.658682E-1,7.695995E-1,1.853185E-1,-2.3242192E-1,-6.7652416E-1,-3.7254426E-1,-7.229209E-1,-6.062272E-1,-9.0263873E-1,5.9761524E-1,2.5483619E-6,2.1452892E-1,-3.4556717E-1,2.6368778E-2,-5.863484E-1,-5.889303E-1,-8.4737927E-1,1.03595234E-1,1.0724181E0,2.3739908E0,7.3711896E-1,1.9408478E0,8.113292E-1,6.835681E-1,2.9902232E-3,4.9917334E-1,1.7860491E0,4.725311E-1,-2.7904654E-2,8.276643E-1,-2.6846698E-1,-1.569588E-1,-7.162599E-1,-2.9074776E-3,-5.5447453E-1,-4.146602E-1,-7.7089214E-1,-4.55256E-1,-8.0765545E-1,-7.79358E-1,-9.519861E-1,8.42519E-2,1.781343E-2,6.4498775E-2,-1.3525255E-2,5.5597097E-2,-7.0419097E-3,-4.2527717E-2,9.557328E-3,7.155691E-2,-1.707954E-2,-4.3562878E-2,-7.510185E-2,-2.8194726E-2,-6.791841E-2,-8.495691E-2,2.9706976E-1,3.3948258E-2,-1.4185937E-2,7.6210715E-2,1.9319028E-1,2.9224154E-1,1.6945931E-1,1.4425042E-1,2.4747588E-2,2.8666953E-2,2.2708474E-1,1.0571614E-2,1.009061E-1,1.08457945E-1,4.477416E-2,5.1509716E-2,-1.6682731E-2,1.01889804E-1,2.2043465E-2,3.4243134E-1,1.4798458E-1,7.327495E-2,1.4680031E-2,2.4614692E-2,-2.0284574E-2,1.1408455E-2,1.2543693E-1,-3.8971603E-2,-2.6387598E-3,-3.9301008E-2,2.4570111E-2,-4.4189315E-2,-7.7000245E-2,4.3369576E-2,-1.4085024E-2,-5.964706E-2,-1.8183822E-2,-2.8361563E-2,-6.9002874E-2,-6.659528E-2,-8.6639225E-2,-2.0070499E-2,-5.726838E-2,-7.23827E-2,-9.075153E-2,-4.196801E-2,-8.59314E-2,-8.822853E-2,-9.7144976E-2],"categories":[],"categories_nodes":[],"categories_segments":[],"categories_sizes":[],"default_left":[0,0,0,0,0,0,0,0,0,0,0,0,0,0,0,0,0,0,0,0,0,0,0,0,0,0,0,0,0,0,0,0,0,0,0,0,0,0,0,0,0,0,0,0,0,0,0,0,0,0,0,0,0,0,0,0,0,0,0,0,0,0,0,0,0,0,0,0,0,0,0,0,0,0,0,0,0,0,0,0,0,0,0,0,0,0,0,0,0,0,0,0,0,0,0,0,0,0,0,0,0,0,0,0,0,0,0,0,0,0,0,0,0,0,0,0,0,0,0,0,0,0,0,0,0,0,0],"id":2,"left_children":[1,3,5,7,9,11,13,15,17,19,21,23,25,27,29,31,33,35,37,39,41,43,45,47,49,51,53,55,57,59,61,63,65,67,69,71,73,75,77,79,81,83,85,87,89,91,93,95,97,99,101,103,105,107,109,111,113,115,117,119,121,123,125,-1,-1,-1,-1,-1,-1,-1,-1,-1,-1,-1,-1,-1,-1,-1,-1,-1,-1,-1,-1,-1,-1,-1,-1,-1,-1,-1,-1,-1,-1,-1,-1,-1,-1,-1,-1,-1,-1,-1,-1,-1,-1,-1,-1,-1,-1,-1,-1,-1,-1,-1,-1,-1,-1,-1,-1,-1,-1,-1,-1,-1,-1,-1,-1],"loss_changes":[5.4987773E4,3.0433441E4,9.468137E3,2.6535974E3,9.038781E3,2.8333486E3,1.3410156E3,1.4832551E3,3.428098E2,4.602207E3,5.3000586E3,7.72562E2,4.0602185E2,4.211704E2,6.498086E2,5.086996E2,1.0213101E3,3.3329294E2,1.24795166E2,8.166356E2,7.9898203E3,4.1199766E3,2.0451279E3,8.65833E2,4.9121695E2,1.9054214E2,7.23844E1,6.090343E2,8.143042E1,2.7373633E2,2.5151953E2,4.6014807E2,1.823446E2,4.69738E2,3.516234E2,2.0283716E2,5.4137817E1,1.10012085E2,3.2206543E1,9.96802E1,4.682975E2,3.661879E3,1.4782825E3,2.606914E3,1.3920947E3,8.940039E2,7.2032776E2,3.607763E2,3.271311E2,2.895692E2,2.2079558E2,4.9802788E1,1.4139972E2,2.3930807E1,4.7755127E1,1.8003168E2,9.487195E1,2.6746353E1,4.7353027E1,1.5395776E2,3.1657715E1,3.406836E2,3.9308594E1,0E0,0E0,0E0,0E0,0E0,0E0,0E0,0E0,0E0,0E0,0E0,0E0,0E0,0E0,0E0,0E0,0E0,0E0,0E0,0E0,0E0,0E0,0E0,0E0,0E0,0E0,0E0,0E0,0E0,0E0,0E0,0E0,0E0,0E0,0E0,0E0,0E0,0E0,0E0,0E0,0E0,0E0,0E0,0E0,0E0,0E0,0E0,0E0,0E0,0E0,0E0,0E0,0E0,0E0,0E0,0E0,0E0,0E0,0E0,0E0,0E0,0E0,0E0,0E0],"parents":[2147483647,0,0,1,1,2,2,3,3,4,4,5,5,6,6,7,7,8,8,9,9,10,10,11,11,12,12,13,13,14,14,15,15,16,16,17,17,18,18,19,19,20,20,21,21,22,22,23,23,24,24,25,25,26,26,27,27,28,28,29,29,30,30,31,31,32,32,33,33,34,34,35,35,36,36,37,37,38,38,39,39,40,40,41,41,42,42,43,43,44,44,45,45,46,46,47,47,48,48,49,49,50,50,51,51,52,52,53,53,54,54,55,55,56,56,57,57,58,58,59,59,60,60,61,61,62,62],"right_children":[2,4,6,8,10,12,14,16,18,20,22,24,26,28,30,32,34,36,38,40,42,44,46,48,50,52,54,56,58,60,62,64,66,68,70,72,74,76,78,80,82,84,86,88,90,92,94,96,98,100,102,104,106,108,110,112,114,116,118,120,122,124,126,-1,-1,-1,-1,-1,-1,-1,-1,-1,-1,-1,-1,-1,-1,-1,-1,-1,-1,-1,-1,-1,-1,-1,-1,-1,-1,-1,-1,-1,-1,-1,-1,-1,-1,-1,-1,-1,-1,-1,-1,-1,-1,-1,-1,-1,-1,-1,-1,-1,-1,-1,-1,-1,-1,-1,-1,-1,-1,-1,-1,-1,-1,-1,-1],"split_conditions":[4.5278916E-1,5E-1,4.0372166E-1,5.9845E-1,2.4038261E-1,6.6818E-1,3.370022E-1,2.9163912E-1,2.4608667E-1,2.5096923E-1,2.0200083E-1,1.2941176E-1,7.8836334E-1,6.7566586E-1,3.2748914E-1,5.26875E-1,3.3401304E-1,5.030158E-1,5.101067E-1,5.394483E-1,7.007068E-1,4.0957E-1,3.8437608E-1,6.338825E-1,2.1753913E-1,2.7034333E-1,3.1184834E-1,4.8393083E-1,2.7248695E-1,6.7566586E-1,6.0753167E-1,6.472925E-1,4.1383833E-1,3.35875E-1,5.5495E-1,2.9180217E-1,6.3509667E-1,4.3337607E-1,6.7011076E-1,5.019608E-1,3.9342582E-1,2.425525E-1,4.4298333E-1,2.9366943E-1,2.5096923E-1,2.8495663E-1,6.7353375E-2,5.7575667E-1,-2.5818862E-2,6.9039E-1,5.9721833E-1,5.528708E-1,7.249417E-1,7.614875E-1,2.6923478E-1,2.1753913E-1,5.746261E-1,7.8509665E-1,4.7640666E-1,4.9328834E-1,8.0422E-1,4.9642918E-1,4.6620166E-1,8.42519E-2,1.781343E-2,6.4498775E-2,-1.3525255E-2,5.5597097E-2,-7.0419097E-3,-4.2527717E-2,9.557328E-3,7.155691E-2,-1.707954E-2,-4.3562878E-2,-7.510185E-2,-2.8194726E-2,-6.791841E-2,-8.495691E-2,2.9706976E-1,3.3948258E-2,-1.4185937E-2,7.6210715E-2,1.9319028E-1,2.9224154E-1,1.6945931E-1,1.4425042E-1,2.4747588E-2,2.8666953E-2,2.2708474E-1,1.0571614E-2,1.009061E-1,1.08457945E-1,4.477416E-2,5.1509716E-2,-1.6682731E-2,1.01889804E-1,2.2043465E-2,3.4243134E-1,1.4798458E-1,7.327495E-2,1.4680031E-2,2.4614692E-2,-2.0284574E-2,1.1408455E-2,1.2543693E-1,-3.8971603E-2,-2.6387598E-3,-3.9301008E-2,2.4570111E-2,-4.4189315E-2,-7.7000245E-2,4.3369576E-2,-1.4085024E-2,-5.964706E-2,-1.8183822E-2,-2.8361563E-2,-6.9002874E-2,-6.659528E-2,-8.6639225E-2,-2.0070499E-2,-5.726838E-2,-7.23827E-2,-9.075153E-2,-4.196801E-2,-8.59314E-2,-8.822853E-2,-9.7144976E-2],"split_indices":[79,90,82,82,43,79,69,69,79,78,79,9,79,79,43,83,43,83,83,81,78,82,69,27,43,82,82,82,43,79,79,78,82,66,57,43,82,69,25,9,27,79,81,78,78,9,64,40,21,66,66,1,1,1,69,43,70,79,82,82,79,82,82,0,0,0,0,0,0,0,0,0,0,0,0,0,0,0,0,0,0,0,0,0,0,0,0,0,0,0,0,0,0,0,0,0,0,0,0,0,0,0,0,0,0,0,0,0,0,0,0,0,0,0,0,0,0,0,0,0,0,0,0,0,0,0,0],"split_type":[0,0,0,0,0,0,0,0,0,0,0,0,0,0,0,0,0,0,0,0,0,0,0,0,0,0,0,0,0,0,0,0,0,0,0,0,0,0,0,0,0,0,0,0,0,0,0,0,0,0,0,0,0,0,0,0,0,0,0,0,0,0,0,0,0,0,0,0,0,0,0,0,0,0,0,0,0,0,0,0,0,0,0,0,0,0,0,0,0,0,0,0,0,0,0,0,0,0,0,0,0,0,0,0,0,0,0,0,0,0,0,0,0,0,0,0,0,0,0,0,0,0,0,0,0,0,0],"sum_hessian":[1.6741708E5,8.269427E4,8.4722805E4,3.2602025E4,5.0092246E4,1.9662396E4,6.506041E4,2.1391992E4,1.1210033E4,1.7600488E4,3.249176E4,1.1172077E4,8.490319E3,1.458282E4,5.047759E4,6.5677603E3,1.4824232E4,3.684289E3,7.525744E3,3.480138E3,1.4120351E4,1.4753186E4,1.7738574E4,3.1521636E3,8.019913E3,4.9797793E3,3.5105403E3,9.055553E3,5.5272676E3,9.012665E3,4.1464926E4,4.4795522E3,2.0882083E3,4.8266616E3,9.997571E3,1.4908058E3,2.1934834E3,3.9765503E3,3.5491938E3,1.7197714E3,1.7603665E3,9.84024E3,4.28011E3,4.7758276E3,9.977357E3,9.457576E3,8.280998E3,2.4909407E3,6.61223E2,3.4165662E3,4.603347E3,1.6303233E2,4.8167466E3,2.4975905E2,3.2607812E3,2.9872412E3,6.0683115E3,7.456166E2,4.781651E3,5.1534194E3,3.859246E3,1.1857938E4,2.9606986E4,2.8276743E3,1.6518776E3,3.613388E2,1.7268694E3,2.19524E3,2.6314216E3,8.467592E3,1.5299794E3,3.3103207E2,1.1597737E3,1.1471567E3,1.0463265E3,9.0442505E2,3.0721252E3,3.5479365E3,1.2574095E0,8.767816E2,8.4298975E2,1.2947812E3,4.6558517E2,5.4431284E3,4.397112E3,1.752907E3,2.5272031E3,7.94605E2,3.9812227E3,2.1842646E3,7.7930933E3,3.500889E3,5.956687E3,2.061685E3,6.2193135E3,8.686452E2,1.6222954E3,1.0252193E2,5.587011E2,1.8985842E3,1.5179819E3,1.7934443E3,2.8099028E3,6.1482445E1,1.0154988E2,3.2089077E3,1.607839E3,1.5746962E2,9.228944E1,5.3560876E2,2.7251726E3,7.166921E2,2.2705493E3,5.453142E3,6.1516907E2,5.0657404E2,2.3904256E2,2.2820352E3,2.499616E3,1.627708E3,3.5257114E3,2.1025144E3,1.7567316E3,2.1577324E3,9.700206E3,6.4730034E3,2.3133982E4],"tree_param":{"num_deleted":"0","num_feature":"92","num_nodes":"127","size_leaf_vector":"1"}},{"base_weights":[-2.5102742E-2,4.5228693E-1,-5.8184963E-1,-1.9514933E-1,8.3311325E-1,-1.4870955E-2,-7.627972E-1,8.993378E-4,-5.8156174E-1,1.4054796E0,6.2100995E-1,2.320735E-1,-4.6651053E-1,-4.808632E-1,-8.4035784E-1,3.564452E-1,-1.7801872E-1,-2.931919E-1,-6.978524E-1,1.8170885E0,8.820133E-1,9.1373044E-1,3.0539778E-1,6.1694974E-1,3.8123753E-2,-2.9740584E-1,-6.602445E-1,-3.834936E-1,-7.5635785E-1,-5.9814245E-1,-8.953047E-1,8.605271E-1,2.0273314E-1,1.3239051E-1,-3.710148E-1,5.8159385E-2,-5.6896603E-1,-5.773576E-1,-8.366254E-1,5.88711E-1,2.119916E0,1.412652E0,6.839894E-1,1.2973703E0,3.7633565E-1,5.9318197E-1,-2.5178596E-2,3.8950247E-1,1.1832311E0,2.553146E-1,-2.140822E-1,-5.6440663E-1,-1.5894791E-1,-1.1137184E-1,-7.0278215E-1,-6.368443E-2,-5.525759E-1,-3.752422E-1,-8.154799E-1,-4.4599888E-1,-7.599125E-1,-6.9630986E-1,-9.310823E-1,1.2957309E-1,3.984367E-2,4.187798E-2,-7.6693385E-3,4.8082527E-2,-4.787814E-3,5.237716E-3,-5.4300077E-2,6.929516E-2,-1.0211168E-2,-4.1621294E-2,-7.25846E-2,-1.7390937E-2,-6.603159E-2,-6.3197754E-2,-8.7940715E-2,1.8600108E-2,1.1928528E-1,2.6955447E-1,8.1691355E-2,1.8317996E-1,8.348876E-2,1.0138389E-1,4.3668505E-2,2.0797339E-1,8.147443E-2,7.057628E-2,1.55394E-2,8.2130216E-2,3.3658195E-2,2.1879848E-2,-3.3659156E-2,6.20549E-2,9.425179E-5,7.92937E-2,2.5491196E-1,6.215315E-2,5.418679E-3,9.13825E-3,-3.747001E-2,-8.438008E-3,-6.1790258E-2,-3.1203395E-2,1.37079805E-2,-3.5847478E-2,3.1961616E-2,-8.000266E-2,-5.7293374E-2,3.4321796E-2,-1.8159084E-2,-4.88262E-2,-7.919319E-2,-4.6450056E-2,4.3854654E-2,-6.449332E-2,-8.5544005E-2,-1.3274512E-2,-5.6447595E-2,-5.741104E-2,-8.262825E-2,-4.7459573E-2,-8.423447E-2,-8.232973E-2,-9.64936E-2],"categories":[],"categories_nodes":[],"categories_segments":[],"categories_sizes":[],"default_left":[0,0,0,0,0,0,0,0,0,0,0,0,0,0,0,0,0,0,0,0,0,0,0,0,0,0,0,0,0,0,0,0,0,0,0,0,0,0,0,0,0,0,0,0,0,0,0,0,0,0,0,0,0,0,0,0,0,0,0,0,0,0,0,0,0,0,0,0,0,0,0,0,0,0,0,0,0,0,0,0,0,0,0,0,0,0,0,0,0,0,0,0,0,0,0,0,0,0,0,0,0,0,0,0,0,0,0,0,0,0,0,0,0,0,0,0,0,0,0,0,0,0,0,0,0,0,0],"id":3,"left_children":[1,3,5,7,9,11,13,15,17,19,21,23,25,27,29,31,33,35,37,39,41,43,45,47,49,51,53,55,57,59,61,63,65,67,69,71,73,75,77,79,81,83,85,87,89,91,93,95,97,99,101,103,105,107,109,111,113,115,117,119,121,123,125,-1,-1,-1,-1,-1,-1,-1,-1,-1,-1,-1,-1,-1,-1,-1,-1,-1,-1,-1,-1,-1,-1,-1,-1,-1,-1,-1,-1,-1,-1,-1,-1,-1,-1,-1,-1,-1,-1,-1,-1,-1,-1,-1,-1,-1,-1,-1,-1,-1,-1,-1,-1,-1,-1,-1,-1,-1,-1,-1,-1,-1,-1,-1,-1],"loss_changes":[4.437506E4,2.2162326E4,7.9071855E3,2.5219512E3,6.869875E3,2.0798633E3,1.2772148E3,1.4050599E3,3.7555762E2,3.295293E3,3.8148213E3,8.999478E2,2.1576941E2,3.379126E2,6.0928125E2,5.7273987E2,8.802981E2,3.1220966E2,1.3302637E2,3.1848027E3,7.0699854E2,4.4164277E3,1.8905417E3,5.19853E2,4.3923804E2,1.3009814E2,7.1634155E1,5.037976E2,7.3856445E1,2.0825781E2,2.6523438E2,3.468927E2,3.4217493E2,3.5389938E2,6.597905E2,1.4430522E2,4.295642E1,1.4302808E2,3.1912842E1,4.1223035E2,5.151127E3,4.416516E2,3.999502E2,4.718119E3,6.4950415E2,6.215891E2,7.028224E2,2.5887717E2,6.148352E2,3.1730334E2,1.8207521E2,3.0819214E1,1.0519889E2,2.3768719E1,3.553369E1,1.54717E2,9.34375E1,3.2445305E1,1.8861206E1,1.6211212E2,5.0163086E1,1.839978E2,1.1469922E2,0E0,0E0,0E0,0E0,0E0,0E0,0E0,0E0,0E0,0E0,0E0,0E0,0E0,0E0,0E0,0E0,0E0,0E0,0E0,0E0,0E0,0E0,0E0,0E0,0E0,0E0,0E0,0E0,0E0,0E0,0E0,0E0,0E0,0E0,0E0,0E0,0E0,0E0,0E0,0E0,0E0,0E0,0E0,0E0,0E0,0E0,0E0,0E0,0E0,0E0,0E0,0E0,0E0,0E0,0E0,0E0,0E0,0E0,0E0,0E0,0E0,0E0,0E0,0E0],"parents":[2147483647,0,0,1,1,2,2,3,3,4,4,5,5,6,6,7,7,8,8,9,9,10,10,11,11,12,12,13,13,14,14,15,15,16,16,17,17,18,18,19,19,20,20,21,21,22,22,23,23,24,24,25,25,26,26,27,27,28,28,29,29,30,30,31,31,32,32,33,33,34,34,35,35,36,36,37,37,38,38,39,39,40,40,41,41,42,42,43,43,44,44,45,45,46,46,47,47,48,48,49,49,50,50,51,51,52,52,53,53,54,54,55,55,56,56,57,57,58,58,59,59,60,60,61,61,62,62],"right_children":[2,4,6,8,10,12,14,16,18,20,22,24,26,28,30,32,34,36,38,40,42,44,46,48,50,52,54,56,58,60,62,64,66,68,70,72,74,76,78,80,82,84,86,88,90,92,94,96,98,100,102,104,106,108,110,112,114,116,118,120,122,124,126,-1,-1,-1,-1,-1,-1,-1,-1,-1,-1,-1,-1,-1,-1,-1,-1,-1,-1,-1,-1,-1,-1,-1,-1,-1,-1,-1,-1,-1,-1,-1,-1,-1,-1,-1,-1,-1,-1,-1,-1,-1,-1,-1,-1,-1,-1,-1,-1,-1,-1,-1,-1,-1,-1,-1,-1,-1,-1,-1,-1,-1,-1,-1,-1],"split_conditions":[4.7082084E-1,5E-1,4.0372166E-1,5.9845E-1,1.9009782E-1,7.0549583E-1,3.2981738E-1,3.1016305E-1,2.3560667E-1,3.6023483E-1,2.2875084E-1,1.9009782E-1,7.9475915E-1,7.44765E-1,3.2720217E-1,1.3333334E-1,3.7233043E-1,5.0573415E-1,5.101067E-1,2.7207154E-1,1.7852958E-1,3.7724072E-1,3.6915E-1,6.382933E-1,6.8038917E-1,4.8899084E-1,3.1184834E-1,4.82435E-1,2.9163912E-1,6.5306914E-1,3.3401304E-1,4.0524334E-1,5.411765E-1,2.627451E-1,3.206935E-1,2.648239E-1,5.415983E-1,3.7155434E-1,1.6971624E-1,5.546075E-1,6.786316E-1,6.042799E-1,3.4711242E-1,4.081175E-1,3.2156864E-1,4.732425E-1,4.3963045E-1,6E-1,6.4718664E-1,2.392157E-1,1.8375869E-1,1.5213478E-1,7.365208E-1,7.72215E-1,7.4693835E-1,2.1429783E-1,5.2500916E-1,8.796575E-1,3.4371522E-1,4.82435E-1,-5.70111E-1,6.417525E-1,5.9624916E-1,1.2957309E-1,3.984367E-2,4.187798E-2,-7.6693385E-3,4.8082527E-2,-4.787814E-3,5.237716E-3,-5.4300077E-2,6.929516E-2,-1.0211168E-2,-4.1621294E-2,-7.25846E-2,-1.7390937E-2,-6.603159E-2,-6.3197754E-2,-8.7940715E-2,1.8600108E-2,1.1928528E-1,2.6955447E-1,8.1691355E-2,1.8317996E-1,8.348876E-2,1.0138389E-1,4.3668505E-2,2.0797339E-1,8.147443E-2,7.057628E-2,1.55394E-2,8.2130216E-2,3.3658195E-2,2.1879848E-2,-3.3659156E-2,6.20549E-2,9.425179E-5,7.92937E-2,2.5491196E-1,6.215315E-2,5.418679E-3,9.13825E-3,-3.747001E-2,-8.438008E-3,-6.1790258E-2,-3.1203395E-2,1.37079805E-2,-3.5847478E-2,3.1961616E-2,-8.000266E-2,-5.7293374E-2,3.4321796E-2,-1.8159084E-2,-4.88262E-2,-7.919319E-2,-4.6450056E-2,4.3854654E-2,-6.449332E-2,-8.5544005E-2,-1.3274512E-2,-5.6447595E-2,-5.741104E-2,-8.262825E-2,-4.7459573E-2,-8.423447E-2,-8.232973E-2,-9.64936E-2],"split_indices":[79,90,82,82,56,79,56,56,79,80,79,56,79,79,69,35,43,83,83,78,22,80,43,27,40,83,82,82,69,79,43,66,9,9,69,56,83,56,80,81,78,9,9,82,22,66,69,9,14,22,69,69,14,1,14,43,83,27,43,82,46,79,79,0,0,0,0,0,0,0,0,0,0,0,0,0,0,0,0,0,0,0,0,0,0,0,0,0,0,0,0,0,0,0,0,0,0,0,0,0,0,0,0,0,0,0,0,0,0,0,0,0,0,0,0,0,0,0,0,0,0,0,0,0,0,0,0],"split_type":[0,0,0,0,0,0,0,0,0,0,0,0,0,0,0,0,0,0,0,0,0,0,0,0,0,0,0,0,0,0,0,0,0,0,0,0,0,0,0,0,0,0,0,0,0,0,0,0,0,0,0,0,0,0,0,0,0,0,0,0,0,0,0,0,0,0,0,0,0,0,0,0,0,0,0,0,0,0,0,0,0,0,0,0,0,0,0,0,0,0,0,0,0,0,0,0,0,0,0,0,0,0,0,0,0,0,0,0,0,0,0,0,0,0,0,0,0,0,0,0,0,0,0,0,0,0,0],"sum_hessian":[1.6695634E5,8.988419E4,7.707216E4,3.32896E4,5.659459E4,1.8646512E4,5.8425645E4,2.2085426E4,1.1204176E4,1.5300409E4,4.129418E4,1.2055418E4,6.591094E3,1.2606835E4,4.581881E4,7.3930225E3,1.4692402E4,3.2208494E3,7.983326E3,8.563968E3,6.7364414E3,2.1423064E4,1.9871117E4,4.0387305E3,8.016687E3,3.5206003E3,3.070494E3,9.316458E3,3.2903772E3,8.474333E3,3.7344473E4,1.726513E3,5.66651E3,5.63291E3,9.059492E3,1.4166935E3,1.804156E3,4.2758345E3,3.707492E3,1.6942842E3,6.8696836E3,1.8290521E3,4.907389E3,1.2498858E4,8.924206E3,1.0622701E4,9.248416E3,2.8826143E3,1.1561163E3,4.3073433E3,3.7093438E3,1.2011804E3,2.31942E3,2.2110799E2,2.849386E3,3.2225571E3,6.093901E3,4.4287027E2,2.8475068E3,4.3690396E3,4.105294E3,5.6941494E3,3.1650324E4,8.881942E2,8.3831866E2,3.1953975E3,2.4711123E3,1.9200492E3,3.7128608E3,2.617203E3,6.4422896E3,2.84911E2,1.1317825E3,9.159521E2,8.882039E2,7.2978613E2,3.5460483E3,6.437699E2,3.063722E3,1.017407E3,6.768772E2,4.764012E3,2.1056711E3,1.0587769E3,7.7027527E2,2.1014365E3,2.8059526E3,4.767373E3,7.731485E3,3.5816785E3,5.3425273E3,5.6222544E3,5.0004463E3,5.18585E3,4.0625664E3,1.807335E3,1.0752793E3,9.004102E2,2.5570607E2,1.5262433E3,2.7811E3,1.2784349E3,2.430909E3,1.2070001E2,1.0804805E3,1.528781E3,7.906389E2,1.4064102E2,8.0466965E1,1.6262867E3,1.2230992E3,7.2356793E2,2.4989893E3,4.8056777E3,1.2882235E3,3.994832E2,4.3387074E1,5.437911E2,2.3037158E3,1.1995487E3,3.1694907E3,1.0830261E3,3.0222678E3,2.2628604E3,3.4312888E3,7.570931E3,2.4079395E4],"tree_param":{"num_deleted":"0","num_feature":"92","num_nodes":"127","size_leaf_vector":"1"}},{"base_weights":[-2.5642017E-2,3.8348022E-1,-5.653286E-1,-1.8836129E-1,6.9297147E-1,-2.2652559E-2,-7.496669E-1,4.958476E-2,-4.632921E-1,1.0062041E0,4.4977456E-1,1.8767346E-1,-4.5108476E-1,-4.7577864E-1,-8.2891464E-1,1.5133865E0,9.7520845E-3,-1.956353E-1,-6.484054E-1,1.3704722E0,7.112976E-1,8.2280314E-1,2.4524893E-1,4.926545E-1,6.550236E-3,-5.8911767E-2,-5.325106E-1,-3.7945762E-1,-7.472095E-1,-6.040238E-1,-8.922018E-1,2.115604E0,9.92871E-1,3.445423E-1,-1.22965656E-1,5.214521E-2,-4.5226645E-1,-5.337877E-1,-8.120593E-1,1.8779973E0,1.0474615E0,1.0705274E0,4.505056E-1,1.3928264E0,5.838178E-1,4.9634397E-1,-2.927475E-2,8.1060606E-1,2.1205902E-1,1.9845997E-1,-2.2513491E-1,8.3645356E-1,-1.522784E-1,-2.466113E-1,-6.33186E-1,-1.12230435E-1,-5.571568E-1,-3.905377E-1,-8.0476904E-1,-4.378003E-1,-7.6721776E-1,-7.36552E-1,-9.360395E-1,1.8123037E-1,2.9305255E-1,1.7494859E-1,-6.367333E-3,7.610325E-2,1.7806878E-2,2.131483E-2,-2.446833E-2,5.995213E-2,-1.1619357E-2,-2.7503168E-2,-6.670039E-2,-1.731245E-2,-6.1556645E-2,-6.8723164E-2,-8.778878E-2,2.6112652E-1,1.5392438E-1,1.3423955E-1,7.3223166E-2,8.7332E-2,1.8600224E-1,7.883812E-2,2.3818055E-2,2.2872289E-1,1.150612E-1,8.439703E-2,3.249716E-2,8.737963E-2,1.8195642E-2,1.7624518E-2,-2.664338E-2,5.196635E-2,1.6270407E-1,-8.741067E-3,3.7144672E-2,6.8793776E-3,5.990633E-2,6.0277693E-3,-3.929109E-2,1.835488E-1,4.2246982E-2,1.7163957E-2,-3.7127897E-2,-4.5318674E-2,1.4769486E-2,-3.970281E-2,-7.0335E-2,2.2304317E-2,-2.567786E-2,-4.8866067E-2,-7.631094E-2,-2.4815282E-2,-7.167847E-2,-8.805151E-2,-7.2949834E-2,-7.459607E-3,-5.3816807E-2,-6.305716E-2,-8.2953066E-2,-5.7412412E-2,-8.718707E-2,-8.562291E-2,-9.66075E-2],"categories":[],"categories_nodes":[],"categories_segments":[],"categories_sizes":[],"default_left":[0,0,0,0,0,0,0,0,0,0,0,0,0,0,0,0,0,0,0,0,0,0,0,0,0,0,0,0,0,0,0,0,0,0,0,0,0,0,0,0,0,0,0,0,0,0,0,0,0,0,0,0,0,0,0,0,0,0,0,0,0,0,0,0,0,0,0,0,0,0,0,0,0,0,0,0,0,0,0,0,0,0,0,0,0,0,0,0,0,0,0,0,0,0,0,0,0,0,0,0,0,0,0,0,0,0,0,0,0,0,0,0,0,0,0,0,0,0,0,0,0,0,0,0,0,0,0],"id":4,"left_children":[1,3,5,7,9,11,13,15,17,19,21,23,25,27,29,31,33,35,37,39,41,43,45,47,49,51,53,55,57,59,61,63,65,67,69,71,73,75,77,79,81,83,85,87,89,91,93,95,97,99,101,103,105,107,109,111,113,115,117,119,121,123,125,-1,-1,-1,-1,-1,-1,-1,-1,-1,-1,-1,-1,-1,-1,-1,-1,-1,-1,-1,-1,-1,-1,-1,-1,-1,-1,-1,-1,-1,-1,-1,-1,-1,-1,-1,-1,-1,-1,-1,-1,-1,-1,-1,-1,-1,-1,-1,-1,-1,-1,-1,-1,-1,-1,-1,-1,-1,-1,-1,-1,-1,-1,-1,-1],"loss_changes":[3.675702E4,1.6758535E4,7.18084E3,2.1753733E3,4.6798125E3,1.6402673E3,1.1625977E3,1.0393821E3,7.6425684E2,2.8836328E3,2.6386523E3,6.7442365E2,1.9136548E2,3.1414844E2,5.9091797E2,1.4592554E2,7.7117053E2,4.0119543E2,1.7062842E2,1.9672793E3,1.3898833E3,1.6676992E3,1.5400137E3,4.056848E2,3.406754E2,8.636805E1,1.4269617E2,4.2155298E2,6.433386E1,2.4731128E2,2.2057617E2,4.8582886E1,2.041016E2,3.414803E2,5.085329E2,2.959182E2,1.17769104E2,1.5816809E2,3.024707E1,1.156127E3,6.81687E2,9.701636E2,6.167948E2,7.810327E2,5.809734E2,1.3844944E3,5.202847E2,5.0564355E2,1.1544288E2,2.1764583E2,1.662488E2,3.957824E1,6.639453E1,1.0548211E2,6.0530396E1,1.7197198E2,7.485095E1,2.0238548E1,1.4811279E1,1.6491406E2,3.8690186E1,1.5623022E2,5.9816406E1,0E0,0E0,0E0,0E0,0E0,0E0,0E0,0E0,0E0,0E0,0E0,0E0,0E0,0E0,0E0,0E0,0E0,0E0,0E0,0E0,0E0,0E0,0E0,0E0,0E0,0E0,0E0,0E0,0E0,0E0,0E0,0E0,0E0,0E0,0E0,0E0,0E0,0E0,0E0,0E0,0E0,0E0,0E0,0E0,0E0,0E0,0E0,0E0,0E0,0E0,0E0,0E0,0E0,0E0,0E0,0E0,0E0,0E0,0E0,0E0,0E0,0E0,0E0,0E0],"parents":[2147483647,0,0,1,1,2,2,3,3,4,4,5,5,6,6,7,7,8,8,9,9,10,10,11,11,12,12,13,13,14,14,15,15,16,16,17,17,18,18,19,19,20,20,21,21,22,22,23,23,24,24,25,25,26,26,27,27,28,28,29,29,30,30,31,31,32,32,33,33,34,34,35,35,36,36,37,37,38,38,39,39,40,40,41,41,42,42,43,43,44,44,45,45,46,46,47,47,48,48,49,49,50,50,51,51,52,52,53,53,54,54,55,55,56,56,57,57,58,58,59,59,60,60,61,61,62,62],"right_children":[2,4,6,8,10,12,14,16,18,20,22,24,26,28,30,32,34,36,38,40,42,44,46,48,50,52,54,56,58,60,62,64,66,68,70,72,74,76,78,80,82,84,86,88,90,92,94,96,98,100,102,104,106,108,110,112,114,116,118,120,122,124,126,-1,-1,-1,-1,-1,-1,-1,-1,-1,-1,-1,-1,-1,-1,-1,-1,-1,-1,-1,-1,-1,-1,-1,-1,-1,-1,-1,-1,-1,-1,-1,-1,-1,-1,-1,-1,-1,-1,-1,-1,-1,-1,-1,-1,-1,-1,-1,-1,-1,-1,-1,-1,-1,-1,-1,-1,-1,-1,-1,-1,-1,-1,-1,-1],"split_conditions":[4.7785E-1,5E-1,4.0372166E-1,5.714192E-1,2.8085434E-1,7.127442E-1,3.3305E-1,8.21375E-2,2.603725E-1,3.9089E-1,2.5963262E-1,2.0324783E-1,2.2275434E-1,7.44765E-1,3.5634348E-1,5.086167E-1,2.4882826E-1,5.086167E-1,5.1423E-1,2.9803923E-1,3.333333E-1,2.5891417E-1,3.6514083E-1,3.607843E-1,6.8698084E-1,1.6431087E-1,2.724326E-1,5E-1,2.9163912E-1,6.5306914E-1,-5.6081194E-1,5E-1,4.9328834E-1,1.882353E-1,2.564087E-1,2.9715E-1,6.183183E-1,3.7155434E-1,-7.103281E-3,2.1960784E-1,4.1094E-1,5E-1,1.439895E-1,1.1764706E-1,4.1390333E-1,-3.3393434E-1,-3.5627967E-1,6.3385415E-1,2.352941E-1,6.25245E-1,1.9469348E-1,4.9767825E-1,2.8495663E-1,7.5221E-1,3.4967834E-1,1.4901961E-1,5.12655E-1,3.173161E-1,3.607843E-1,4.6329418E-1,4.4906834E-1,6.6818E-1,6.3034165E-1,1.8123037E-1,2.9305255E-1,1.7494859E-1,-6.367333E-3,7.610325E-2,1.7806878E-2,2.131483E-2,-2.446833E-2,5.995213E-2,-1.1619357E-2,-2.7503168E-2,-6.670039E-2,-1.731245E-2,-6.1556645E-2,-6.8723164E-2,-8.778878E-2,2.6112652E-1,1.5392438E-1,1.3423955E-1,7.3223166E-2,8.7332E-2,1.8600224E-1,7.883812E-2,2.3818055E-2,2.2872289E-1,1.150612E-1,8.439703E-2,3.249716E-2,8.737963E-2,1.8195642E-2,1.7624518E-2,-2.664338E-2,5.196635E-2,1.6270407E-1,-8.741067E-3,3.7144672E-2,6.8793776E-3,5.990633E-2,6.0277693E-3,-3.929109E-2,1.835488E-1,4.2246982E-2,1.7163957E-2,-3.7127897E-2,-4.5318674E-2,1.4769486E-2,-3.970281E-2,-7.0335E-2,2.2304317E-2,-2.567786E-2,-4.8866067E-2,-7.631094E-2,-2.4815282E-2,-7.167847E-2,-8.805151E-2,-7.2949834E-2,-7.459607E-3,-5.3816807E-2,-6.305716E-2,-8.2953066E-2,-5.7412412E-2,-8.718707E-2,-8.562291E-2,-9.66075E-2],"split_indices":[79,90,82,82,56,79,56,79,79,40,69,56,56,79,69,83,56,83,83,35,9,53,40,9,40,69,69,82,69,79,46,83,82,9,69,56,82,56,46,9,53,14,77,9,40,46,46,14,61,14,69,18,9,14,82,9,83,38,61,82,82,79,79,0,0,0,0,0,0,0,0,0,0,0,0,0,0,0,0,0,0,0,0,0,0,0,0,0,0,0,0,0,0,0,0,0,0,0,0,0,0,0,0,0,0,0,0,0,0,0,0,0,0,0,0,0,0,0,0,0,0,0,0,0,0,0,0],"split_type":[0,0,0,0,0,0,0,0,0,0,0,0,0,0,0,0,0,0,0,0,0,0,0,0,0,0,0,0,0,0,0,0,0,0,0,0,0,0,0,0,0,0,0,0,0,0,0,0,0,0,0,0,0,0,0,0,0,0,0,0,0,0,0,0,0,0,0,0,0,0,0,0,0,0,0,0,0,0,0,0,0,0,0,0,0,0,0,0,0,0,0,0,0,0,0,0,0,0,0,0,0,0,0,0,0,0,0,0,0,0,0,0,0,0,0,0,0,0,0,0,0,0,0,0,0,0,0],"sum_hessian":[1.664717E5,9.4689984E4,7.178171E4,3.3251734E4,6.1438254E4,1.8200916E4,5.3580793E4,1.7825236E4,1.5426497E4,2.6851252E4,3.4587004E4,1.2208217E4,5.9926987E3,1.2025707E4,4.1555086E4,4.7122714E2,1.735401E4,6.3079043E3,9.118593E3,1.2011283E4,1.4839968E4,1.2247008E4,2.2339994E4,4.54816E3,7.6600566E3,1.0306211E3,4.9620776E3,8.877723E3,3.1479849E3,9.128288E3,3.2426799E4,2.1704713E2,2.5418E2,4.926062E3,1.2427947E4,3.2096982E3,3.098206E3,5.3652295E3,3.7533633E3,4.6695376E3,7.3417456E3,6.2406426E3,8.599325E3,3.6164036E3,8.6306045E3,1.166746E4,1.0672535E4,2.1312664E3,2.416894E3,4.189745E3,3.4703115E3,9.6570694E1,9.3405035E2,1.2931688E3,3.6689087E3,3.5463254E3,5.3313965E3,4.385104E2,2.7094746E3,4.523993E3,4.6042954E3,7.1297534E3,2.5297045E4,1.6052596E2,5.652118E1,1.4773082E2,1.0644918E2,1.4056866E3,3.5203752E3,3.303855E3,9.124093E3,7.543305E2,2.455368E3,1.6985659E3,1.3996401E3,9.922579E2,4.3729717E3,1.2998875E3,2.4534758E3,1.4734318E3,3.196106E3,3.7912925E3,3.5504531E3,4.9950405E3,1.245602E3,3.317474E3,5.2818516E3,7.6886066E2,2.847543E3,4.303313E3,4.3272915E3,5.301147E3,6.366313E3,5.7177983E3,4.9547363E3,1.5725226E3,5.587437E2,8.396839E2,1.5772101E3,3.1661167E3,1.02362836E3,1.2849893E3,2.1853223E3,2.7287117E1,6.928358E1,3.768612E2,5.5718915E2,8.484959E2,4.4467294E2,8.419006E2,2.827008E3,1.0681807E3,2.4781448E3,4.003333E3,1.3280636E3,3.0650305E2,1.3200737E2,1.345141E3,1.3643335E3,9.798655E2,3.5441274E3,1.4455233E3,3.158772E3,3.2426836E3,3.8870698E3,6.9251094E3,1.8371936E4],"tree_param":{"num_deleted":"0","num_feature":"92","num_nodes":"127","size_leaf_vector":"1"}},{"base_weights":[-2.4828922E-2,-4.7403908E-1,2.78543E-1,-1.6743164E-1,-6.579213E-1,6.71385E-1,-9.180152E-2,4.896122E-2,-5.842606E-1,-3.2345468E-1,-7.6719797E-1,1.0008036E0,4.1490662E-1,3.297891E-1,-3.5375E-1,4.2228884E-1,-1.10694505E-1,-2.5245816E-1,-7.044803E-1,1.4384305E-2,-4.212884E-1,-5.159192E-1,-8.535704E-1,1.3442328E0,6.8414426E-1,7.1391773E-1,1.2124053E-1,1.0267024E0,2.0795436E-1,1.0257272E-1,-5.308207E-1,8.486559E-1,2.2337152E-1,2.1065909E-1,-2.9067597E-1,-5.4869324E-2,-6.3408405E-1,-3.5830656E-1,-8.18822E-1,4.7227037E-1,-1.2368809E-1,-2.0905487E-1,-5.1307076E-1,-2.9468662E-1,-6.069574E-1,-6.2535805E-1,-8.9618695E-1,5.943413E-1,1.6004722E0,8.991384E-1,2.5750074E-1,8.495508E-1,6.2561765E-2,5.583296E-1,-2.1585123E-1,1.5299033E0,7.077181E-1,5.123157E-1,2.370615E-2,1.1252393E0,4.805266E-2,-6.42672E-2,-6.2881863E-1,1.6281427E-1,5.952992E-2,3.793569E-2,-1.7239934E-2,-1.7558502E-2,3.928047E-2,8.13372E-3,-4.9236607E-2,9.545806E-3,-4.8256755E-2,-4.6912115E-2,-7.989413E-2,-2.2437228E-2,-6.816969E-2,-5.7177957E-2,-8.971563E-2,2.0403815E-2,1.1352155E-1,1.0282915E-1,-1.6023861E-2,2.6793016E-2,-3.14499E-2,-4.611024E-2,-7.531091E-2,-3.9684247E-2,1.1888718E-2,-5.1077623E-2,-7.950405E-2,-7.776648E-2,-4.6281766E-2,-7.4548654E-2,-9.1768496E-2,1.3561337E-2,1.3446282E-1,2.0939665E-1,6.5673165E-2,1.429246E-1,7.300027E-2,1.19688865E-2,6.2662475E-2,1.4425293E-2,1.0737603E-1,4.513591E-2,-2.5927765E-2,9.9644415E-2,3.3377394E-2,9.492153E-3,-3.7248738E-2,2.0141761E-1,9.978379E-2,-1.5666819E-3,8.419591E-2,8.0447726E-2,2.3156043E-2,6.5244876E-2,-3.4751648E-3,1.7574556E-2,1.489911E-1,3.6602113E-2,-9.768057E-3,7.1185604E-2,-1.1185496E-2,-3.463437E-2,-7.435428E-2],"categories":[],"categories_nodes":[],"categories_segments":[],"categories_sizes":[],"default_left":[0,0,0,0,0,0,0,0,0,0,0,0,0,0,0,0,0,0,0,0,0,0,0,0,0,0,0,0,0,0,0,0,0,0,0,0,0,0,0,0,0,0,0,0,0,0,0,0,0,0,0,0,0,0,0,0,0,0,0,0,0,0,0,0,0,0,0,0,0,0,0,0,0,0,0,0,0,0,0,0,0,0,0,0,0,0,0,0,0,0,0,0,0,0,0,0,0,0,0,0,0,0,0,0,0,0,0,0,0,0,0,0,0,0,0,0,0,0,0,0,0,0,0,0,0,0,0],"id":5,"left_children":[1,3,5,7,9,11,13,15,17,19,21,23,25,27,29,31,33,35,37,39,41,43,45,47,49,51,53,55,57,59,61,63,65,67,69,71,73,75,77,79,81,83,85,87,89,91,93,95,97,99,101,103,105,107,109,111,113,115,117,119,121,123,125,-1,-1,-1,-1,-1,-1,-1,-1,-1,-1,-1,-1,-1,-1,-1,-1,-1,-1,-1,-1,-1,-1,-1,-1,-1,-1,-1,-1,-1,-1,-1,-1,-1,-1,-1,-1,-1,-1,-1,-1,-1,-1,-1,-1,-1,-1,-1,-1,-1,-1,-1,-1,-1,-1,-1,-1,-1,-1,-1,-1,-1,-1,-1,-1],"loss_changes":[2.260277E4,3.7693613E3,1.4403177E4,2.2609834E3,1.5272754E3,4.0584805E3,5.627858E3,9.835868E2,3.415161E2,3.4023743E2,6.832324E2,2.2860137E3,2.3718574E3,1.6580027E3,2.5397427E3,4.1905054E2,6.6861237E2,1.7187291E2,2.4857104E2,1.4625932E2,1.5538208E2,1.6216455E2,2.2741992E2,1.9373164E3,1.0035322E3,1.1823794E3,2.0082369E3,4.6534595E2,9.322658E2,4.899126E2,1.0352964E3,3.095182E2,2.08234E2,2.9205676E2,5.560034E2,9.66924E1,2.0772736E1,6.7539E1,9.093286E1,9.507729E1,7.500917E1,1.2137327E2,6.915698E1,9.941116E1,1.0288135E2,9.1036865E1,6.3301758E1,8.845503E2,3.4998008E3,6.513218E2,1.8652057E2,1.7515684E3,2.8888882E2,5.8352747E2,3.7464075E2,2.8825684E2,1.7289716E2,5.1402466E2,3.806846E2,1.5372809E2,3.866843E2,1.4529935E2,6.0618994E2,0E0,0E0,0E0,0E0,0E0,0E0,0E0,0E0,0E0,0E0,0E0,0E0,0E0,0E0,0E0,0E0,0E0,0E0,0E0,0E0,0E0,0E0,0E0,0E0,0E0,0E0,0E0,0E0,0E0,0E0,0E0,0E0,0E0,0E0,0E0,0E0,0E0,0E0,0E0,0E0,0E0,0E0,0E0,0E0,0E0,0E0,0E0,0E0,0E0,0E0,0E0,0E0,0E0,0E0,0E0,0E0,0E0,0E0,0E0,0E0,0E0,0E0,0E0,0E0],"parents":[2147483647,0,0,1,1,2,2,3,3,4,4,5,5,6,6,7,7,8,8,9,9,10,10,11,11,12,12,13,13,14,14,15,15,16,16,17,17,18,18,19,19,20,20,21,21,22,22,23,23,24,24,25,25,26,26,27,27,28,28,29,29,30,30,31,31,32,32,33,33,34,34,35,35,36,36,37,37,38,38,39,39,40,40,41,41,42,42,43,43,44,44,45,45,46,46,47,47,48,48,49,49,50,50,51,51,52,52,53,53,54,54,55,55,56,56,57,57,58,58,59,59,60,60,61,61,62,62],"right_children":[2,4,6,8,10,12,14,16,18,20,22,24,26,28,30,32,34,36,38,40,42,44,46,48,50,52,54,56,58,60,62,64,66,68,70,72,74,76,78,80,82,84,86,88,90,92,94,96,98,100,102,104,106,108,110,112,114,116,118,120,122,124,126,-1,-1,-1,-1,-1,-1,-1,-1,-1,-1,-1,-1,-1,-1,-1,-1,-1,-1,-1,-1,-1,-1,-1,-1,-1,-1,-1,-1,-1,-1,-1,-1,-1,-1,-1,-1,-1,-1,-1,-1,-1,-1,-1,-1,-1,-1,-1,-1,-1,-1,-1,-1,-1,-1,-1,-1,-1,-1,-1,-1,-1,-1,-1,-1],"split_conditions":[1E0,4.84365E-1,4.9510667E-1,5.999225E-1,3.265587E-1,3.0152392E-1,2.7248695E-1,2.9180217E-1,4.4337827E-1,4.5623416E-1,3.6915E-1,3.0162427E-1,3.6835E-1,1.02232605E-1,2.4999782E-1,2.1960784E-1,3.5947827E-1,5.2321583E-1,4.5295218E-1,1.1191957E-1,4.9590832E-1,6.154967E-1,3.206935E-1,3.4201294E-1,5.0573415E-1,7.851843E-1,3.4667608E-1,1.7612392E-1,2.174087E-1,2.7034333E-1,2.1299782E-1,1.2466936E-1,7.3102903E-1,2.980066E-1,3.6515653E-1,7.651652E-1,5.5404085E-1,5.2625334E-1,4.5900217E-1,6.431373E-1,2.779375E-1,2.564087E-1,6.044E-1,5.5973476E-1,5.6017584E-1,3.9215687E-1,2.04145E-1,5.7013917E-1,6.563355E-1,1.4117648E-1,4.00135E-1,2.594177E-1,4.5076418E-1,2.2352941E-1,4.64715E-1,4.0784314E-1,1.6312379E-1,4.27451E-1,2.8987083E-1,3.7819457E-1,2.1948262E-1,2.8425834E-1,6.366492E-1,1.6281427E-1,5.952992E-2,3.793569E-2,-1.7239934E-2,-1.7558502E-2,3.928047E-2,8.13372E-3,-4.9236607E-2,9.545806E-3,-4.8256755E-2,-4.6912115E-2,-7.989413E-2,-2.2437228E-2,-6.816969E-2,-5.7177957E-2,-8.971563E-2,2.0403815E-2,1.1352155E-1,1.0282915E-1,-1.6023861E-2,2.6793016E-2,-3.14499E-2,-4.611024E-2,-7.531091E-2,-3.9684247E-2,1.1888718E-2,-5.1077623E-2,-7.950405E-2,-7.776648E-2,-4.6281766E-2,-7.4548654E-2,-9.1768496E-2,1.3561337E-2,1.3446282E-1,2.0939665E-1,6.5673165E-2,1.429246E-1,7.300027E-2,1.19688865E-2,6.2662475E-2,1.4425293E-2,1.0737603E-1,4.513591E-2,-2.5927765E-2,9.9644415E-2,3.3377394E-2,9.492153E-3,-3.7248738E-2,2.0141761E-1,9.978379E-2,-1.5666819E-3,8.419591E-2,8.0447726E-2,2.3156043E-2,6.5244876E-2,-3.4751648E-3,1.7574556E-2,1.489911E-1,3.6602113E-2,-9.768057E-3,7.1185604E-2,-1.1185496E-2,-3.463437E-2,-7.435428E-2],"split_indices":[90,53,53,82,56,43,43,43,43,82,43,80,56,56,69,9,69,83,69,56,83,53,69,78,83,78,69,69,69,82,56,22,78,78,56,17,83,83,56,48,82,69,82,44,82,74,27,81,78,35,27,78,81,22,82,22,78,22,82,78,56,82,53,0,0,0,0,0,0,0,0,0,0,0,0,0,0,0,0,0,0,0,0,0,0,0,0,0,0,0,0,0,0,0,0,0,0,0,0,0,0,0,0,0,0,0,0,0,0,0,0,0,0,0,0,0,0,0,0,0,0,0,0,0,0,0,0],"split_type":[0,0,0,0,0,0,0,0,0,0,0,0,0,0,0,0,0,0,0,0,0,0,0,0,0,0,0,0,0,0,0,0,0,0,0,0,0,0,0,0,0,0,0,0,0,0,0,0,0,0,0,0,0,0,0,0,0,0,0,0,0,0,0,0,0,0,0,0,0,0,0,0,0,0,0,0,0,0,0,0,0,0,0,0,0,0,0,0,0,0,0,0,0,0,0,0,0,0,0,0,0,0,0,0,0,0,0,0,0,0,0,0,0,0,0,0,0,0,0,0,0,0,0,0,0,0,0],"sum_hessian":[1.6585614E5,6.685773E4,9.8998414E4,2.5065354E4,4.179237E4,4.803966E4,5.0958758E4,1.6500273E4,8.565081E3,1.0292807E4,3.1499564E4,2.1028254E4,2.7011406E4,1.9528512E4,3.1430246E4,4.9421816E3,1.1558092E4,2.2787917E3,6.286289E3,2.3115217E3,7.981285E3,8.059489E3,2.3440074E4,1.008617E4,1.0942084E4,1.3383192E4,1.3628213E4,2.9048574E3,1.6623654E4,8.786721E3,2.2643525E4,1.5711824E3,3.3709993E3,4.1493438E3,7.4087476E3,1.502176E3,7.7661584E2,1.5618538E3,4.724435E3,5.3497546E2,1.7765464E3,2.4105388E3,5.5707466E3,2.350867E3,5.708622E3,3.6909043E3,1.974917E4,2.5695708E3,7.516599E3,7.274973E3,3.6671106E3,1.1076424E4,2.3067688E3,5.9336743E3,7.6945386E3,1.1255286E3,1.7793287E3,6.2678887E3,1.0355766E4,4.4373163E2,8.342989E3,3.9308745E3,1.8712652E4,3.8408023E2,1.1871022E3,2.4180237E3,9.529755E2,1.3297064E3,2.8196375E3,2.6048157E3,4.803932E3,1.1120792E3,3.900968E2,3.9010568E2,3.8651013E2,1.1056396E3,4.5621417E2,1.1394037E3,3.5850315E3,3.8180304E2,1.531724E2,5.3799183E1,1.7227472E3,4.3612973E2,1.974409E3,4.581722E3,9.890243E2,1.8852391E3,4.6562775E2,3.7795613E3,1.9290607E3,1.9034819E3,1.7874224E3,2.4700222E3,1.7279148E4,1.5953496E3,9.7422125E2,4.934871E3,2.581728E3,1.7578973E3,5.5170757E3,2.671161E3,9.9594977E2,2.6721768E3,8.404247E3,1.0445275E3,1.2622413E3,2.009549E3,3.9241255E3,2.578694E3,5.115844E3,5.8776953E2,5.3775903E2,2.786501E2,1.5006787E3,3.0706365E3,3.1972524E3,8.800653E2,9.4757E3,1.2354365E2,3.20188E2,2.6215784E3,5.7214106E3,2.2628963E2,3.7045847E3,5.40599E3,1.3306661E4],"tree_param":{"num_deleted":"0","num_feature":"92","num_nodes":"127","size_leaf_vector":"1"}},{"base_weights":[-2.6877439E-2,3.4842762E-1,-3.555734E-1,-1.5063503E-1,6.0377795E-1,8.4174044E-2,-5.998047E-1,2.570447E-2,-6.104159E-1,9.78293E-1,4.4176486E-1,3.1128272E-1,-2.1090703E-1,-2.8213507E-1,-7.208502E-1,3.0890068E-1,-1.53339E-1,-2.2780716E-1,-6.898017E-1,1.6358633E0,8.193048E-1,7.869017E-1,2.7552935E-1,6.3497037E-1,1.3127048E-1,1.1266639E-1,-3.6882135E-1,-1.0449201E-1,-4.990732E-1,-4.3648508E-1,-8.10525E-1,5.813008E-1,1.07548304E-1,3.333097E-2,-4.6666574E-1,2.6378328E-1,-3.6368114E-1,-4.92328E-1,-7.972599E-1,2.799537E0,1.4323336E0,9.610868E-1,3.3467847E-1,1.07952E0,5.563919E-1,4.8273984E-1,6.1240774E-2,1.2646215E0,5.0237894E-1,3.4013733E-1,-7.854469E-2,5.279339E-1,-3.4846954E-2,2.9098812E-1,-4.2286676E-1,9.864823E-2,-2.4289604E-1,-3.5119963E-1,-6.2298846E-1,2.1302844E-3,-5.5869555E-1,-6.2176263E-1,-8.607088E-1,9.081515E-2,3.3237923E-2,2.5607932E-2,-2.2585452E-2,3.536861E-2,-1.9430917E-2,-2.8449863E-2,-6.587556E-2,8.019155E-2,-1.0525208E-3,2.6271055E-2,-4.2986162E-2,-6.904456E-2,-2.4138886E-2,-8.344453E-2,-5.3030558E-2,3.2127443E-1,1.731874E-1,1.741965E-1,8.575893E-2,1.3087954E-1,6.8773106E-2,1.1418163E-1,1.5014675E-2,9.342036E-2,1.7219333E-1,8.126659E-2,3.5726275E-2,7.222155E-2,2.5379185E-2,2.6290158E-2,-2.1477334E-2,7.893141E-2,1.8312706E-1,7.1419455E-2,1.7432844E-2,8.481812E-2,2.1461038E-2,1.1046069E-2,-2.4194581E-2,1.072699E-1,3.3546213E-2,1.3291167E-1,-7.1015544E-3,7.884348E-2,6.4340504E-3,-2.9183257E-2,-5.813832E-2,3.1269465E-2,-9.510144E-3,1.4632686E-2,-2.943224E-2,-1.7932046E-2,-4.66935E-2,-6.66783E-2,-3.9080556E-2,2.6464382E-2,-2.002926E-2,-4.455718E-2,-7.10592E-2,-4.2955022E-2,-7.787125E-2,-9.0007894E-2,-7.5535044E-2],"categories":[],"categories_nodes":[],"categories_segments":[],"categories_sizes":[],"default_left":[0,0,0,0,0,0,0,0,0,0,0,0,0,0,0,0,0,0,0,0,0,0,0,0,0,0,0,0,0,0,0,0,0,0,0,0,0,0,0,0,0,0,0,0,0,0,0,0,0,0,0,0,0,0,0,0,0,0,0,0,0,0,0,0,0,0,0,0,0,0,0,0,0,0,0,0,0,0,0,0,0,0,0,0,0,0,0,0,0,0,0,0,0,0,0,0,0,0,0,0,0,0,0,0,0,0,0,0,0,0,0,0,0,0,0,0,0,0,0,0,0,0,0,0,0,0,0],"id":6,"left_children":[1,3,5,7,9,11,13,15,17,19,21,23,25,27,29,31,33,35,37,39,41,43,45,47,49,51,53,55,57,59,61,63,65,67,69,71,73,75,77,79,81,83,85,87,89,91,93,95,97,99,101,103,105,107,109,111,113,115,117,119,121,123,125,-1,-1,-1,-1,-1,-1,-1,-1,-1,-1,-1,-1,-1,-1,-1,-1,-1,-1,-1,-1,-1,-1,-1,-1,-1,-1,-1,-1,-1,-1,-1,-1,-1,-1,-1,-1,-1,-1,-1,-1,-1,-1,-1,-1,-1,-1,-1,-1,-1,-1,-1,-1,-1,-1,-1,-1,-1,-1,-1,-1,-1,-1,-1,-1],"loss_changes":[2.0378133E4,9.828842E3,9.458091E3,2.1166602E3,3.095377E3,2.1074436E3,2.17692E3,9.5686035E2,2.196582E2,1.60929E3,2.0432554E3,1.035341E3,6.988948E2,6.020277E2,1.0450645E3,4.0085596E2,6.762517E2,8.325836E1,1.26779785E2,7.0618945E2,8.522715E2,7.8032764E2,1.067417E3,5.295383E2,5.005207E2,2.7484668E2,3.2789197E2,2.4155789E2,1.2865991E2,5.269702E2,2.9469922E2,2.524403E2,2.0824843E2,5.285057E2,1.5086053E2,3.9892143E1,4.056723E1,1.0495886E2,3.8067627E1,1.909065E2,4.5306152E2,9.114951E2,4.1836502E2,4.7453662E2,3.303009E2,6.6990356E2,6.5793463E2,2.958954E2,3.644995E2,3.6482184E2,1.7600896E2,1.2294873E2,1.6345529E2,7.8474E1,1.7630359E2,1.4443163E2,1.0232315E2,6.375119E1,3.8637573E1,1.13943184E2,1.317976E2,1.9723999E2,1.0143555E2,0E0,0E0,0E0,0E0,0E0,0E0,0E0,0E0,0E0,0E0,0E0,0E0,0E0,0E0,0E0,0E0,0E0,0E0,0E0,0E0,0E0,0E0,0E0,0E0,0E0,0E0,0E0,0E0,0E0,0E0,0E0,0E0,0E0,0E0,0E0,0E0,0E0,0E0,0E0,0E0,0E0,0E0,0E0,0E0,0E0,0E0,0E0,0E0,0E0,0E0,0E0,0E0,0E0,0E0,0E0,0E0,0E0,0E0,0E0,0E0,0E0,0E0,0E0,0E0],"parents":[2147483647,0,0,1,1,2,2,3,3,4,4,5,5,6,6,7,7,8,8,9,9,10,10,11,11,12,12,13,13,14,14,15,15,16,16,17,17,18,18,19,19,20,20,21,21,22,22,23,23,24,24,25,25,26,26,27,27,28,28,29,29,30,30,31,31,32,32,33,33,34,34,35,35,36,36,37,37,38,38,39,39,40,40,41,41,42,42,43,43,44,44,45,45,46,46,47,47,48,48,49,49,50,50,51,51,52,52,53,53,54,54,55,55,56,56,57,57,58,58,59,59,60,60,61,61,62,62],"right_children":[2,4,6,8,10,12,14,16,18,20,22,24,26,28,30,32,34,36,38,40,42,44,46,48,50,52,54,56,58,60,62,64,66,68,70,72,74,76,78,80,82,84,86,88,90,92,94,96,98,100,102,104,106,108,110,112,114,116,118,120,122,124,126,-1,-1,-1,-1,-1,-1,-1,-1,-1,-1,-1,-1,-1,-1,-1,-1,-1,-1,-1,-1,-1,-1,-1,-1,-1,-1,-1,-1,-1,-1,-1,-1,-1,-1,-1,-1,-1,-1,-1,-1,-1,-1,-1,-1,-1,-1,-1,-1,-1,-1,-1,-1,-1,-1,-1,-1,-1,-1,-1,-1,-1,-1,-1,-1],"split_conditions":[5E-1,5E-1,4.1100085E-1,6.1200166E-1,1.7852958E-1,6.614183E-1,3.370022E-1,3.597326E-1,3.4046522E-1,1.767E-1,2.2734131E-1,1.6869348E-1,2.108413E-1,6.472667E-1,3.4371522E-1,3.372549E-1,4.8995668E-1,1.5743E-1,5.4392827E-1,1.7574348E-2,6.2398046E-1,3.333333E-1,3.626413E-1,9.8130435E-2,4.509804E-1,1.1688227E-1,2.8987083E-1,3.5652173E-1,3.8728696E-1,4.181625E-1,5.882033E-1,3.607843E-1,3.0906257E-1,4.2067608E-1,5.001E-1,1.866634E-1,-9.1596705E-1,4.4313726E-1,5.719174E-1,3.8067025E-1,4.1541585E-1,1.8212183E-1,3.558625E-1,3.96775E-1,2.8259784E-1,3.274902E-1,4.0723E-1,4.2801E-1,6.1355466E-1,8.394787E-2,1.11972325E-1,4.9995652E-1,2.4621917E-1,2.607075E-1,3.6915E-1,4.1094E-1,7.626739E-2,4.7051916E-1,5.6851304E-1,3.718606E-1,7.523483E-1,5.5179083E-1,2.7998167E-1,9.081515E-2,3.3237923E-2,2.5607932E-2,-2.2585452E-2,3.536861E-2,-1.9430917E-2,-2.8449863E-2,-6.587556E-2,8.019155E-2,-1.0525208E-3,2.6271055E-2,-4.2986162E-2,-6.904456E-2,-2.4138886E-2,-8.344453E-2,-5.3030558E-2,3.2127443E-1,1.731874E-1,1.741965E-1,8.575893E-2,1.3087954E-1,6.8773106E-2,1.1418163E-1,1.5014675E-2,9.342036E-2,1.7219333E-1,8.126659E-2,3.5726275E-2,7.222155E-2,2.5379185E-2,2.6290158E-2,-2.1477334E-2,7.893141E-2,1.8312706E-1,7.1419455E-2,1.7432844E-2,8.481812E-2,2.1461038E-2,1.1046069E-2,-2.4194581E-2,1.072699E-1,3.3546213E-2,1.3291167E-1,-7.1015544E-3,7.884348E-2,6.4340504E-3,-2.9183257E-2,-5.813832E-2,3.1269465E-2,-9.510144E-3,1.4632686E-2,-2.943224E-2,-1.7932046E-2,-4.66935E-2,-6.66783E-2,-3.9080556E-2,2.6464382E-2,-2.002926E-2,-4.455718E-2,-7.10592E-2,-4.2955022E-2,-7.787125E-2,-9.0007894E-2,-7.5535044E-2],"split_indices":[66,90,82,82,22,53,69,43,43,30,43,43,69,53,43,22,53,66,69,9,69,9,69,69,22,22,82,43,43,53,66,9,51,69,69,80,72,74,57,80,80,51,82,14,80,80,53,14,22,9,64,5,82,82,43,53,69,82,70,22,53,82,77,0,0,0,0,0,0,0,0,0,0,0,0,0,0,0,0,0,0,0,0,0,0,0,0,0,0,0,0,0,0,0,0,0,0,0,0,0,0,0,0,0,0,0,0,0,0,0,0,0,0,0,0,0,0,0,0,0,0,0,0,0,0,0,0],"split_type":[0,0,0,0,0,0,0,0,0,0,0,0,0,0,0,0,0,0,0,0,0,0,0,0,0,0,0,0,0,0,0,0,0,0,0,0,0,0,0,0,0,0,0,0,0,0,0,0,0,0,0,0,0,0,0,0,0,0,0,0,0,0,0,0,0,0,0,0,0,0,0,0,0,0,0,0,0,0,0,0,0,0,0,0,0,0,0,0,0,0,0,0,0,0,0,0,0,0,0,0,0,0,0,0,0,0,0,0,0,0,0,0,0,0,0,0,0,0,0,0,0,0,0,0,0,0,0],"sum_hessian":[1.6518872E5,7.7126086E4,8.8062625E4,2.610543E4,5.1020656E4,3.1445143E4,5.6617484E4,1.8869402E4,7.236028E3,1.5404964E4,3.561569E4,1.7769115E4,1.3676026E4,1.5622202E4,4.099528E4,7.3085747E3,1.1560827E4,1.2440518E3,5.991976E3,2.9976177E3,1.2407347E4,1.1576637E4,2.4039055E4,6.3494224E3,1.1419693E4,4.485443E3,9.190584E3,8.589798E3,7.0324043E3,9.829884E3,3.1165398E4,3.105459E3,4.2031157E3,7.24524E3,4.315587E3,2.691887E2,9.74863E2,2.113544E3,3.8784321E3,4.4434372E2,2.553274E3,9.598293E3,2.8090537E3,5.0994756E3,6.477161E3,1.222073E4,1.1818324E4,1.1029915E3,5.2464307E3,5.7224683E3,5.6972256E3,1.1750262E3,3.3104165E3,6.9548004E2,8.495104E3,3.4809612E3,5.1088364E3,3.2079958E3,3.8244084E3,2.1422607E3,7.6876235E3,6.548213E3,2.4617186E4,1.3414271E3,1.7640319E3,2.9078845E3,1.2952312E3,3.0094812E3,4.2357593E3,2.216277E3,2.0993096E3,9.023814E1,1.7895056E2,9.287174E1,8.819913E2,1.180099E3,9.3344495E2,3.4023745E3,4.7605765E2,3.1891E2,1.2543374E2,1.6580199E3,8.95254E2,4.2229336E3,5.375359E3,5.2174866E2,2.2873052E3,4.1607515E3,9.3872437E2,2.8308503E3,3.6463108E3,5.971984E3,6.2487466E3,6.82899E3,4.989334E3,6.0114325E2,5.0184818E2,3.1872869E3,2.059144E3,1.1326302E3,4.589838E3,2.6417957E3,3.0554297E3,3.0557227E2,8.69454E2,8.459211E1,3.2258245E3,2.1691527E2,4.785648E2,4.6522573E3,3.8428467E3,1.653562E3,1.8273992E3,5.960158E2,4.5128203E3,1.2919152E3,1.9160807E3,3.2159434E3,6.08465E2,9.325584E2,1.2097023E3,4.408418E3,3.2792056E3,2.9451272E3,3.6030857E3,1.7915139E4,6.7020454E3],"tree_param":{"num_deleted":"0","num_feature":"92","num_nodes":"127","size_leaf_vector":"1"}},{"base_weights":[-2.6921958E-2,2.5788456E-1,-5.17126E-1,5.31133E-1,2.162548E-3,-9.441162E-2,-7.176134E-1,1.15383E0,4.1643724E-1,2.351909E-1,-2.8960946E-1,6.0470704E-2,-4.9137646E-1,-4.4676617E-1,-8.0443954E-1,1.7578822E0,2.1568109E-1,8.9018583E-1,3.1795773E-1,3.7587622E-1,-1.4189425E-1,-6.0547255E-2,-5.076079E-1,-6.1942697E-2,3.7250593E-1,-2.3889545E-1,-5.886266E-1,-3.5640496E-1,-7.418571E-1,-5.550345E-1,-8.66625E-1,-6.6496897E-3,2.1761482E0,6.126876E-1,3.0922629E-2,7.085344E-1,1.7291187E0,3.981446E-1,-1.4838712E-1,-4.5322046E-2,7.848163E-1,2.8217444E-1,-3.8272163E-1,1.2601729E-1,-2.0167965E-1,-3.5771742E-1,-6.519295E-1,1.5759483E-1,-2.1581033E-1,1.5663636E-1,1.2175224E0,-4.4083643E-1,1.2955083E-1,-2.587386E-2,-6.3232857E-1,-7.780394E-2,-4.8052734E-1,-4.895867E-1,-7.9102266E-1,-4.1821375E-1,-7.551953E-1,-6.8642014E-1,-9.133115E-1,-2.030664E-2,1.32493E-1,2.8114235E-1,1.7423889E-2,4.732161E-2,1.4937072E-1,1.7563683E-1,1.1680964E-3,1.568415E-1,5.8506377E-2,1.1210065E-1,3.7987992E-1,-1.105983E-2,4.9678236E-2,2.0489512E-2,-3.618368E-2,-3.3687074E-2,3.0671278E-2,1.06907606E-1,2.3700833E-2,9.515069E-2,1.5474397E-2,-1.4061721E-2,-4.7753997E-2,3.4177003E-3,5.3919595E-2,-3.1160985E-4,-3.7661094E-2,-2.5386376E-2,-6.4504586E-2,-3.2629076E-2,-7.5855605E-2,4.3282714E-2,1.9268639E-3,7.64643E-2,-2.497641E-2,5.152907E-2,-9.547427E-3,7.165944E-2,3.656499E-1,-5.8989883E-3,-5.0735086E-2,-5.6055863E-3,1.2213137E-1,-3.2154553E-2,3.7894722E-2,-4.4456188E-2,-7.024464E-2,1.4350238E-2,-2.773349E-2,-4.124855E-2,-7.5777106E-2,-3.2381773E-2,-7.77546E-2,-8.266352E-2,-6.187364E-2,-4.90113E-2,4.679469E-3,-6.534455E-2,-8.464302E-2,-5.061635E-2,-8.343502E-2,-7.991811E-2,-9.467661E-2],"categories":[],"categories_nodes":[],"categories_segments":[],"categories_sizes":[],"default_left":[0,0,0,0,0,0,0,0,0,0,0,0,0,0,0,0,0,0,0,0,0,0,0,0,0,0,0,0,0,0,0,0,0,0,0,0,0,0,0,0,0,0,0,0,0,0,0,0,0,0,0,0,0,0,0,0,0,0,0,0,0,0,0,0,0,0,0,0,0,0,0,0,0,0,0,0,0,0,0,0,0,0,0,0,0,0,0,0,0,0,0,0,0,0,0,0,0,0,0,0,0,0,0,0,0,0,0,0,0,0,0,0,0,0,0,0,0,0,0,0,0,0,0,0,0,0,0],"id":7,"left_children":[1,3,5,7,9,11,13,15,17,19,21,23,25,27,29,31,33,35,37,39,41,43,45,47,49,51,53,55,57,59,61,63,65,67,69,71,73,75,77,79,81,83,85,87,89,91,93,95,97,99,101,103,105,107,109,111,113,115,117,119,121,123,125,-1,-1,-1,-1,-1,-1,-1,-1,-1,-1,-1,-1,-1,-1,-1,-1,-1,-1,-1,-1,-1,-1,-1,-1,-1,-1,-1,-1,-1,-1,-1,-1,-1,-1,-1,-1,-1,-1,-1,-1,-1,-1,-1,-1,-1,-1,-1,-1,-1,-1,-1,-1,-1,-1,-1,-1,-1,-1,-1,-1,-1,-1,-1,-1],"loss_changes":[2.2961645E4,7.268946E3,5.122082E3,3.5912744E3,3.653765E3,1.1955479E3,9.6371484E2,4.43209E3,1.9811069E3,1.585041E3,1.191512E3,5.3433606E2,1.3386194E2,2.651565E2,4.8096484E2,3.5115703E3,2.2478108E2,1.1125205E3,1.3149348E3,3.7479658E3,8.292521E2,3.064249E2,2.642456E2,3.394415E2,7.1880444E2,1.1309658E2,9.686316E1,2.6355054E2,2.8543701E1,1.6942493E2,2.0840234E2,2.3898245E2,4.8909883E3,1.18884155E2,6.945104E1,6.3708545E2,1.6320498E3,1.5056616E3,3.8915573E2,1.1003484E3,1.7189497E3,2.507178E2,1.1881073E2,1.901818E2,2.3013303E2,1.7886249E2,2.1598218E2,1.5764267E2,1.9686179E2,2.840318E2,9.770841E2,2.4901154E1,1.0922044E2,3.4223907E1,4.781299E1,1.0383092E2,9.915686E1,1.8034348E1,1.1455933E1,1.2318518E2,2.2796509E1,1.3600684E2,7.457617E1,0E0,0E0,0E0,0E0,0E0,0E0,0E0,0E0,0E0,0E0,0E0,0E0,0E0,0E0,0E0,0E0,0E0,0E0,0E0,0E0,0E0,0E0,0E0,0E0,0E0,0E0,0E0,0E0,0E0,0E0,0E0,0E0,0E0,0E0,0E0,0E0,0E0,0E0,0E0,0E0,0E0,0E0,0E0,0E0,0E0,0E0,0E0,0E0,0E0,0E0,0E0,0E0,0E0,0E0,0E0,0E0,0E0,0E0,0E0,0E0,0E0,0E0,0E0,0E0],"parents":[2147483647,0,0,1,1,2,2,3,3,4,4,5,5,6,6,7,7,8,8,9,9,10,10,11,11,12,12,13,13,14,14,15,15,16,16,17,17,18,18,19,19,20,20,21,21,22,22,23,23,24,24,25,25,26,26,27,27,28,28,29,29,30,30,31,31,32,32,33,33,34,34,35,35,36,36,37,37,38,38,39,39,40,40,41,41,42,42,43,43,44,44,45,45,46,46,47,47,48,48,49,49,50,50,51,51,52,52,53,53,54,54,55,55,56,56,57,57,58,58,59,59,60,60,61,61,62,62],"right_children":[2,4,6,8,10,12,14,16,18,20,22,24,26,28,30,32,34,36,38,40,42,44,46,48,50,52,54,56,58,60,62,64,66,68,70,72,74,76,78,80,82,84,86,88,90,92,94,96,98,100,102,104,106,108,110,112,114,116,118,120,122,124,126,-1,-1,-1,-1,-1,-1,-1,-1,-1,-1,-1,-1,-1,-1,-1,-1,-1,-1,-1,-1,-1,-1,-1,-1,-1,-1,-1,-1,-1,-1,-1,-1,-1,-1,-1,-1,-1,-1,-1,-1,-1,-1,-1,-1,-1,-1,-1,-1,-1,-1,-1,-1,-1,-1,-1,-1,-1,-1,-1,-1,-1,-1,-1,-1],"split_conditions":[4.9141583E-1,4.4205168E-1,4.1526082E-1,1.345025E-1,2.3560667E-1,7.3776E-1,3.4597826E-1,3.080626E-1,5.490196E-2,7.1375245E-1,5.531925E-1,6.5955836E-1,2.9163912E-1,7.619225E-1,3.3373043E-1,3.6901122E-1,4.1541585E-1,4.8602918E-1,8.287781E-1,3.6901122E-1,4.5825583E-1,3.8167825E-1,6.1194783E-1,6.352983E-1,6.9266E-1,7.62945E-1,3.1184834E-1,4.82435E-1,3.1745434E-1,6.980392E-1,3.7861088E-1,6.463725E-1,6.245117E-1,3.170499E-1,1E0,8.394787E-2,4.24805E-1,1.6693969E-1,4.5506668E-1,5.187E-1,4.37001E-1,1.0588236E-1,2.0784312E-1,5.5702174E-1,4.3304566E-1,5.69295E-1,4.2673042E-1,1.7647058E-1,2.607075E-1,6.9039E-1,6.653967E-1,7.161735E-2,8.244575E-1,7.212167E-1,3.0477175E-1,3.8039216E-1,6.0140836E-1,8.289125E-1,5.5495E-1,5.746261E-1,4.8860833E-1,6.83215E-1,6.000558E-1,-2.030664E-2,1.32493E-1,2.8114235E-1,1.7423889E-2,4.732161E-2,1.4937072E-1,1.7563683E-1,1.1680964E-3,1.568415E-1,5.8506377E-2,1.1210065E-1,3.7987992E-1,-1.105983E-2,4.9678236E-2,2.0489512E-2,-3.618368E-2,-3.3687074E-2,3.0671278E-2,1.06907606E-1,2.3700833E-2,9.515069E-2,1.5474397E-2,-1.4061721E-2,-4.7753997E-2,3.4177003E-3,5.3919595E-2,-3.1160985E-4,-3.7661094E-2,-2.5386376E-2,-6.4504586E-2,-3.2629076E-2,-7.5855605E-2,4.3282714E-2,1.9268639E-3,7.64643E-2,-2.497641E-2,5.152907E-2,-9.547427E-3,7.165944E-2,3.656499E-1,-5.8989883E-3,-5.0735086E-2,-5.6055863E-3,1.2213137E-1,-3.2154553E-2,3.7894722E-2,-4.4456188E-2,-7.024464E-2,1.4350238E-2,-2.773349E-2,-4.124855E-2,-7.5777106E-2,-3.2381773E-2,-7.77546E-2,-8.266352E-2,-6.187364E-2,-4.90113E-2,4.679469E-3,-6.534455E-2,-8.464302E-2,-5.061635E-2,-8.343502E-2,-7.991811E-2,-9.467661E-2],"split_indices":[79,82,82,79,79,79,56,80,35,78,82,1,69,79,69,78,80,1,78,78,81,43,69,40,27,14,82,82,69,79,43,81,78,67,37,9,14,78,81,81,80,35,22,44,56,66,56,35,82,66,14,22,27,27,43,22,82,79,57,70,82,79,79,0,0,0,0,0,0,0,0,0,0,0,0,0,0,0,0,0,0,0,0,0,0,0,0,0,0,0,0,0,0,0,0,0,0,0,0,0,0,0,0,0,0,0,0,0,0,0,0,0,0,0,0,0,0,0,0,0,0,0,0,0,0,0,0],"split_type":[0,0,0,0,0,0,0,0,0,0,0,0,0,0,0,0,0,0,0,0,0,0,0,0,0,0,0,0,0,0,0,0,0,0,0,0,0,0,0,0,0,0,0,0,0,0,0,0,0,0,0,0,0,0,0,0,0,0,0,0,0,0,0,0,0,0,0,0,0,0,0,0,0,0,0,0,0,0,0,0,0,0,0,0,0,0,0,0,0,0,0,0,0,0,0,0,0,0,0,0,0,0,0,0,0,0,0,0,0,0,0,0,0,0,0,0,0,0,0,0,0,0,0,0,0,0,0],"sum_hessian":[1.6446405E5,1.0402591E5,6.043814E4,5.028908E4,5.373683E4,1.9443746E4,4.0994395E4,7.82067E3,4.246841E4,2.9876043E4,2.3860785E4,1.3987242E4,5.4565034E3,9.952992E3,3.1041402E4,4.7569243E3,3.0637456E3,7.3073594E3,3.516105E4,2.1758316E4,8.117727E3,1.1635764E4,1.22250205E4,1.0046671E4,3.9405713E3,1.5182578E3,3.9382458E3,7.6214116E3,2.3315806E3,6.197048E3,2.4844355E4,9.117067E2,3.8452175E3,9.722569E2,2.0914888E3,6.008256E3,1.2991039E3,3.0002363E4,5.1586875E3,1.071895E4,1.1039366E4,2.9402034E3,5.177524E3,5.0113325E3,6.6244316E3,5.998519E3,6.226501E3,4.139883E3,5.9067876E3,3.1396863E3,8.008851E2,9.80604E2,5.3765375E2,2.839101E2,3.6543357E3,2.3494778E3,5.2719336E3,3.8207816E2,1.9495024E3,3.682766E3,2.5142817E3,5.1153447E3,1.972901E4,7.952497E2,1.16457016E2,2.9186306E3,9.2658704E2,8.4070465E2,1.3155226E2,2.2070774E1,2.069418E3,7.529337E2,5.255322E3,1.005276E3,2.9382788E2,4.872322E3,2.5130041E4,1.9429445E3,3.2157427E3,5.8632E3,4.85575E3,7.2673555E3,3.772011E3,4.6920786E2,2.4709954E3,1.457781E3,3.719743E3,4.100882E3,9.104507E2,3.1031174E3,3.521314E3,4.407375E3,1.5911443E3,1.5368876E3,4.6896133E3,1.3839874E3,2.7558958E3,1.9698904E2,5.709799E3,1.2955641E3,1.8441222E3,6.654963E2,1.3538881E2,1.457527E2,8.348513E2,4.603414E2,7.731234E1,1.6419308E2,1.19717E2,9.955953E2,2.6587405E3,1.1140875E3,1.2353903E3,4.235046E3,1.0368878E3,2.438348E2,1.3824336E2,1.61241E3,3.3709244E2,3.1895466E3,4.932193E2,1.1925033E3,1.3217786E3,2.3077332E3,2.8076118E3,4.477811E3,1.5251199E4],"tree_param":{"num_deleted":"0","num_feature":"92","num_nodes":"127","size_leaf_vector":"1"}},{"base_weights":[-2.5955943E-2,2.2250858E-1,-4.965922E-1,-1.493863E-1,3.8302556E-1,-5.8926884E-2,-6.8603253E-1,-2.8943017E-2,-5.3849953E-1,6.392426E-1,2.163246E-1,7.320934E-2,-4.3549037E-1,-3.7799412E-1,-7.689871E-1,1.9656797E-1,-1.809935E-1,-3.1227666E-1,-6.776008E-1,8.7005544E-1,3.7325984E-1,5.2664524E-1,8.319688E-2,2.562301E-1,-1.0807336E-1,-3.2483944E-1,-6.74181E-1,-2.7615875E-1,-6.860155E-1,-5.23374E-1,-8.4988075E-1,3.1448975E-1,-2.1857508E-1,5.7337552E-2,-3.66945E-1,6.0483478E-2,-5.0475156E-1,-4.9509707E-1,-7.6840055E-1,1.2857524E0,5.7781607E-1,5.844989E-1,1.7327711E-2,3.4026757E-1,8.57974E-1,3.8394108E-1,-8.0754645E-3,5.5336956E-2,6.088414E-1,-3.490936E-1,3.131958E-2,-4.6019143E-1,-8.463112E-2,-1.8447785E-1,-7.1643585E-1,-4.1869766E-1,-3.163757E-2,-5.485196E-1,-8.409821E-1,-3.7947178E-1,-6.7483985E-1,-6.254274E-1,-8.9244324E-1,2.0261075E-2,8.4690325E-2,2.2568798E-2,-3.158167E-2,2.0629084E-2,-2.6485438E-2,-1.1377012E-2,-5.8902737E-2,3.766148E-2,-2.6116276E-2,-2.9553372E-2,-6.573034E-2,-3.174392E-2,-6.9415644E-2,-5.539442E-2,-8.616128E-2,1.6160981E-1,1.05751716E-1,8.892564E-2,3.1209955E-2,7.859577E-2,3.2296207E-2,-8.385992E-3,3.46509E-2,5.7804555E-2,1.4447743E-2,5.3631485E-2,1.5148348E-1,5.9770525E-2,1.5822997E-2,3.170045E-2,-1.49563225E-2,1.605397E-1,2.4315093E-3,3.368253E-2,1.3777664E-1,-4.462236E-2,-7.913479E-3,-8.126138E-3,3.8131114E-2,-6.777152E-2,-3.4945328E-2,-2.9613718E-2,7.2691225E-2,-6.166476E-2,8.995524E-3,-8.0415525E-2,-5.5381548E-2,-3.4085345E-2,-7.188162E-2,1.5741039E-2,-3.5505943E-2,-4.4774767E-2,-8.660633E-2,-5.9139516E-2,-8.793597E-2,-4.3962255E-2,1.1215337E-3,-2.6497712E-2,-7.468464E-2,-4.889752E-2,-7.531245E-2,-7.6803446E-2,-9.2746E-2],"categories":[],"categories_nodes":[],"categories_segments":[],"categories_sizes":[],"default_left":[0,0,0,0,0,0,0,0,0,0,0,0,0,0,0,0,0,0,0,0,0,0,0,0,0,0,0,0,0,0,0,0,0,0,0,0,0,0,0,0,0,0,0,0,0,0,0,0,0,0,0,0,0,0,0,0,0,0,0,0,0,0,0,0,0,0,0,0,0,0,0,0,0,0,0,0,0,0,0,0,0,0,0,0,0,0,0,0,0,0,0,0,0,0,0,0,0,0,0,0,0,0,0,0,0,0,0,0,0,0,0,0,0,0,0,0,0,0,0,0,0,0,0,0,0,0,0],"id":8,"left_children":[1,3,5,7,9,11,13,15,17,19,21,23,25,27,29,31,33,35,37,39,41,43,45,47,49,51,53,55,57,59,61,63,65,67,69,71,73,75,77,79,81,83,85,87,89,91,93,95,97,99,101,103,105,107,109,111,113,115,117,119,121,123,125,-1,-1,-1,-1,-1,-1,-1,-1,-1,-1,-1,-1,-1,-1,-1,-1,-1,-1,-1,-1,-1,-1,-1,-1,-1,-1,-1,-1,-1,-1,-1,-1,-1,-1,-1,-1,-1,-1,-1,-1,-1,-1,-1,-1,-1,-1,-1,-1,-1,-1,-1,-1,-1,-1,-1,-1,-1,-1,-1,-1,-1,-1,-1,-1],"loss_changes":[1.9110008E4,6.38487E3,4.681625E3,1.5112769E3,3.1908652E3,8.488317E2,1.0067129E3,8.4443463E2,2.3964136E2,1.8075527E3,1.8698921E3,4.1902188E2,1.1681445E2,2.621349E2,6.163965E2,4.8558655E2,6.519015E2,2.083888E2,7.782056E1,1.9145088E3,1.0287988E3,8.388198E2,8.6949976E2,4.4513672E2,2.1318323E2,9.846057E1,2.8891113E1,2.1910263E2,4.379895E1,1.674541E2,2.2253711E2,4.5992792E2,9.4877426E1,3.0947946E2,4.6450696E2,1.00742905E2,6.0934875E1,5.5324097E1,6.247998E1,4.8891992E2,7.6597485E2,4.5218896E2,1.6981575E2,4.048537E2,1.0326348E3,3.5574573E2,1.1178134E3,1.9252527E2,4.76591E2,6.0930756E1,1.5846777E2,4.6433746E1,1.8783914E2,1.3428979E1,1.7968506E1,9.253888E1,1.4167543E2,3.4924774E1,8.816101E0,9.278412E1,1.1039917E2,6.455188E1,8.4793945E1,0E0,0E0,0E0,0E0,0E0,0E0,0E0,0E0,0E0,0E0,0E0,0E0,0E0,0E0,0E0,0E0,0E0,0E0,0E0,0E0,0E0,0E0,0E0,0E0,0E0,0E0,0E0,0E0,0E0,0E0,0E0,0E0,0E0,0E0,0E0,0E0,0E0,0E0,0E0,0E0,0E0,0E0,0E0,0E0,0E0,0E0,0E0,0E0,0E0,0E0,0E0,0E0,0E0,0E0,0E0,0E0,0E0,0E0,0E0,0E0,0E0,0E0,0E0,0E0],"parents":[2147483647,0,0,1,1,2,2,3,3,4,4,5,5,6,6,7,7,8,8,9,9,10,10,11,11,12,12,13,13,14,14,15,15,16,16,17,17,18,18,19,19,20,20,21,21,22,22,23,23,24,24,25,25,26,26,27,27,28,28,29,29,30,30,31,31,32,32,33,33,34,34,35,35,36,36,37,37,38,38,39,39,40,40,41,41,42,42,43,43,44,44,45,45,46,46,47,47,48,48,49,49,50,50,51,51,52,52,53,53,54,54,55,55,56,56,57,57,58,58,59,59,60,60,61,61,62,62],"right_children":[2,4,6,8,10,12,14,16,18,20,22,24,26,28,30,32,34,36,38,40,42,44,46,48,50,52,54,56,58,60,62,64,66,68,70,72,74,76,78,80,82,84,86,88,90,92,94,96,98,100,102,104,106,108,110,112,114,116,118,120,122,124,126,-1,-1,-1,-1,-1,-1,-1,-1,-1,-1,-1,-1,-1,-1,-1,-1,-1,-1,-1,-1,-1,-1,-1,-1,-1,-1,-1,-1,-1,-1,-1,-1,-1,-1,-1,-1,-1,-1,-1,-1,-1,-1,-1,-1,-1,-1,-1,-1,-1,-1,-1,-1,-1,-1,-1,-1,-1,-1,-1,-1,-1,-1,-1,-1],"split_conditions":[4.9777E-1,5E-1,4.0519083E-1,6.1200166E-1,3.312625E-1,7.3776E-1,3.0795434E-1,3.4920436E-1,4.9449334E-1,3.1773973E-1,1.8375869E-1,6.9039E-1,8.348917E-1,7.3776E-1,3.626413E-1,5.4320586E-1,4.055174E-1,2.7123916E-1,4.790239E-1,3.8860583E-1,5.0257915E-1,4.0765083E-1,6.447513E-2,5.6824833E-1,4.8634166E-1,7.519367E-1,3.1866416E-1,4.1568625E-1,8.1669086E-1,6.6818E-1,3.2981738E-1,5.493848E-1,4.2092165E-1,4.9676168E-1,4.595761E-1,3.144814E-1,6.1644346E-1,5.377592E-1,4.8568043E-1,1.49305E-1,3.0045918E-1,2.6547587E-1,3.10035E-1,3.8675085E-1,4.218525E-1,2.3130454E-1,7.514349E-2,1E0,6.198775E-1,7.263975E-1,7.2998834E-1,4.9053165E-1,7.777117E-1,4.7286168E-1,8.0161333E-1,5.461325E-1,5.246275E-1,5.587633E-1,3.2394782E-1,5.746261E-1,2.8085434E-1,6.980392E-1,6.000558E-1,2.0261075E-2,8.4690325E-2,2.2568798E-2,-3.158167E-2,2.0629084E-2,-2.6485438E-2,-1.1377012E-2,-5.8902737E-2,3.766148E-2,-2.6116276E-2,-2.9553372E-2,-6.573034E-2,-3.174392E-2,-6.9415644E-2,-5.539442E-2,-8.616128E-2,1.6160981E-1,1.05751716E-1,8.892564E-2,3.1209955E-2,7.859577E-2,3.2296207E-2,-8.385992E-3,3.46509E-2,5.7804555E-2,1.4447743E-2,5.3631485E-2,1.5148348E-1,5.9770525E-2,1.5822997E-2,3.170045E-2,-1.49563225E-2,1.605397E-1,2.4315093E-3,3.368253E-2,1.3777664E-1,-4.462236E-2,-7.913479E-3,-8.126138E-3,3.8131114E-2,-6.777152E-2,-3.4945328E-2,-2.9613718E-2,7.2691225E-2,-6.166476E-2,8.995524E-3,-8.0415525E-2,-5.5381548E-2,-3.4085345E-2,-7.188162E-2,1.5741039E-2,-3.5505943E-2,-4.4774767E-2,-8.660633E-2,-5.9139516E-2,-8.793597E-2,-4.3962255E-2,1.1215337E-3,-2.6497712E-2,-7.468464E-2,-4.889752E-2,-7.531245E-2,-7.6803446E-2,-9.2746E-2],"split_indices":[79,90,82,82,66,79,43,56,83,80,69,66,79,79,69,83,43,79,69,82,83,1,64,27,83,27,82,48,79,79,56,57,82,40,69,80,56,83,43,79,40,51,27,40,27,51,51,37,1,14,1,83,1,81,27,82,82,82,69,70,56,79,79,0,0,0,0,0,0,0,0,0,0,0,0,0,0,0,0,0,0,0,0,0,0,0,0,0,0,0,0,0,0,0,0,0,0,0,0,0,0,0,0,0,0,0,0,0,0,0,0,0,0,0,0,0,0,0,0,0,0,0,0,0,0,0,0],"split_type":[0,0,0,0,0,0,0,0,0,0,0,0,0,0,0,0,0,0,0,0,0,0,0,0,0,0,0,0,0,0,0,0,0,0,0,0,0,0,0,0,0,0,0,0,0,0,0,0,0,0,0,0,0,0,0,0,0,0,0,0,0,0,0,0,0,0,0,0,0,0,0,0,0,0,0,0,0,0,0,0,0,0,0,0,0,0,0,0,0,0,0,0,0,0,0,0,0,0,0,0,0,0,0,0,0,0,0,0,0,0,0,0,0,0,0,0,0,0,0,0,0,0,0,0,0,0,0],"sum_hessian":[1.6342028E5,1.0695546E5,5.6464816E4,3.2246049E4,7.4709414E4,1.705767E4,3.9407145E4,2.4624906E4,7.621141E3,2.944698E4,4.5262434E4,1.2627487E4,4.4301826E3,8.36195E3,3.1045195E4,9.916755E3,1.4708152E4,2.9030713E3,4.71807E3,1.5764604E4,1.3682377E4,1.3587356E4,3.1675078E4,6.283416E3,6.3440713E3,3.0285735E3,1.4016094E3,6.285718E3,2.0762332E3,7.6934487E3,2.3351746E4,7.7232114E3,2.1935432E3,6.4464863E3,8.261666E3,9.8879266E2,1.9142786E3,1.5696305E3,3.1484395E3,6.5062964E3,9.258307E3,8.586065E3,5.0963115E3,8.697116E3,4.8902397E3,7.3740913E3,2.4300986E4,4.0036023E3,2.2798137E3,2.3240757E3,4.0199956E3,1.9364894E3,1.0920841E3,1.1175986E2,1.2898495E3,3.9704868E3,2.315231E3,1.1025354E3,9.736976E2,3.9470266E3,3.746422E3,3.7247869E3,1.9626959E4,6.383245E3,1.3399663E3,3.9367197E2,1.7998711E3,4.408666E3,2.0378206E3,3.8612903E3,4.400376E3,4.9858524E2,4.9020746E2,8.0845593E2,1.1058226E3,8.3077203E2,7.388585E2,9.5596454E2,2.1924749E3,2.6559778E3,3.8503184E3,4.2613403E3,4.996967E3,4.848962E3,3.7371038E3,3.8986453E3,1.1976664E3,3.9265513E3,4.7705654E3,3.2839392E3,1.6063007E3,3.7864302E3,3.587661E3,7.368955E3,1.6932031E4,7.755755E1,3.926045E3,1.6851207E3,5.94693E2,1.7086558E3,6.1542E2,3.0421895E3,9.7780615E2,6.515416E2,1.2849478E3,8.668095E2,2.2527457E2,4.2921406E1,6.8838455E1,8.353217E2,4.5452777E2,3.1544316E3,8.160551E2,1.461476E3,8.5375494E2,8.387649E2,2.6377057E2,1.3195364E2,8.4174396E2,3.420306E3,5.2672076E2,5.6053326E2,3.1858887E3,1.8029991E3,1.9217877E3,4.315962E3,1.5310998E4],"tree_param":{"num_deleted":"0","num_feature":"92","num_nodes":"127","size_leaf_vector":"1"}},{"base_weights":[-2.4869349E-2,1.9902287E-1,-3.748629E-1,3.8804555E-1,-4.74974E-2,-5.919175E-2,-5.9002805E-1,5.8866376E-1,1.6652015E-1,1.8279293E-1,-3.471058E-1,1.22357406E-1,-2.618569E-1,-4.0457463E-1,-7.5878334E-1,6.794128E-1,-1.6178917E-2,3.7767932E-1,9.85067E-3,5.52659E-1,-9.400615E-3,-2.7900225E-2,-6.522052E-1,2.4576028E-1,-1.49655E-1,-1.1312596E-1,-4.5233187E-1,-2.021261E-1,-5.3017575E-1,-5.507935E-1,-8.5154545E-1,8.019656E-1,2.0055792E-1,4.2194992E-1,-1.366888E-1,2.5283337E-1,7.7666104E-1,-2.4569589E-1,1.036255E-1,7.183312E-1,-4.9521676E-3,8.984551E-2,-4.12407E-1,2.4436733E-1,-2.710184E-1,-4.8378074E-1,-7.753882E-1,4.728577E-1,2.7911305E-2,9.654378E-2,-2.5134194E-1,-2.5618282E-1,1.13041475E-1,-3.29887E-1,-6.8311805E-1,-1.8823154E-2,-3.4954154E-1,-4.0846297E-1,-6.708949E-1,-3.0962023E-1,-6.823781E-1,-7.707065E-1,-8.9798677E-1,3.7834484E-2,1.0799797E-1,9.642218E-3,7.542797E-2,9.16364E-2,1.2682696E-2,7.6394104E-3,-3.1778496E-2,6.07347E-2,1.6024647E-2,5.4191023E-2,1.4033514E-1,-7.68296E-3,-4.1054614E-2,4.802032E-2,3.1132898E-3,2.4910899E-2,1.0719738E-1,-1.1821985E-2,5.1046807E-2,2.100858E-2,-1.8995998E-2,-3.865304E-4,-5.0936677E-2,4.3553036E-2,-1.4545214E-2,2.510149E-3,-4.9517523E-2,-2.7391283E-2,-6.0504925E-2,-6.1779268E-2,-8.621623E-2,2.844486E-2,1.1139518E-1,3.215322E-2,-7.6514534E-3,2.9019937E-2,-1.720569E-2,-8.448347E-3,-3.5443645E-2,-2.8446675E-3,-3.5338305E-2,5.485889E-2,-4.7459654E-3,-3.8514067E-3,-3.948928E-2,-7.483696E-2,-4.6813063E-2,-8.956542E-3,4.832929E-2,-2.296341E-2,-5.8361806E-2,-2.9132454E-2,-5.606323E-2,-5.1454987E-2,-7.766232E-2,4.021607E-3,-4.1033767E-2,-5.4219015E-2,-7.61336E-2,-4.8112113E-2,-8.138697E-2,-8.209506E-2,-9.236308E-2],"categories":[],"categories_nodes":[],"categories_segments":[],"categories_sizes":[],"default_left":[0,0,0,0,0,0,0,0,0,0,0,0,0,0,0,0,0,0,0,0,0,0,0,0,0,0,0,0,0,0,0,0,0,0,0,0,0,0,0,0,0,0,0,0,0,0,0,0,0,0,0,0,0,0,0,0,0,0,0,0,0,0,0,0,0,0,0,0,0,0,0,0,0,0,0,0,0,0,0,0,0,0,0,0,0,0,0,0,0,0,0,0,0,0,0,0,0,0,0,0,0,0,0,0,0,0,0,0,0,0,0,0,0,0,0,0,0,0,0,0,0,0,0,0,0,0,0],"id":9,"left_children":[1,3,5,7,9,11,13,15,17,19,21,23,25,27,29,31,33,35,37,39,41,43,45,47,49,51,53,55,57,59,61,63,65,67,69,71,73,75,77,79,81,83,85,87,89,91,93,95,97,99,101,103,105,107,109,111,113,115,117,119,121,123,125,-1,-1,-1,-1,-1,-1,-1,-1,-1,-1,-1,-1,-1,-1,-1,-1,-1,-1,-1,-1,-1,-1,-1,-1,-1,-1,-1,-1,-1,-1,-1,-1,-1,-1,-1,-1,-1,-1,-1,-1,-1,-1,-1,-1,-1,-1,-1,-1,-1,-1,-1,-1,-1,-1,-1,-1,-1,-1,-1,-1,-1,-1,-1,-1],"loss_changes":[1.2743724E4,4.6216865E3,4.309373E3,2.4947764E3,2.9700457E3,9.463E2,1.1804912E3,1.61696E3,8.826328E2,1.7301409E3,1.8218914E3,4.5542535E2,3.4422913E2,4.570249E2,3.806377E2,1.5030781E3,2.0302887E2,5.658511E2,3.670857E2,7.688428E2,6.406728E2,6.05299E2,1.9807056E2,4.6171753E2,1.060362E2,2.2086546E2,1.5034314E2,1.8603146E2,1.8973486E2,1.9322241E2,5.0586914E1,2.4015889E3,3.009902E2,1.20922226E2,1.1639599E2,2.8405212E2,3.9761633E2,1.1444226E2,3.059005E2,1.0644172E3,1.1141007E2,4.3246362E2,1.2537842E2,3.215142E2,3.2066507E2,1.02734985E2,7.4993164E1,5.5161646E2,1.4611354E2,6.4470245E1,5.1525803E1,9.254562E1,1.8494354E2,6.595941E1,2.5546692E1,1.090885E2,1.0696811E2,1.0591699E2,8.462549E1,7.589438E1,4.3230103E1,6.1989746E1,1.6367188E1,0E0,0E0,0E0,0E0,0E0,0E0,0E0,0E0,0E0,0E0,0E0,0E0,0E0,0E0,0E0,0E0,0E0,0E0,0E0,0E0,0E0,0E0,0E0,0E0,0E0,0E0,0E0,0E0,0E0,0E0,0E0,0E0,0E0,0E0,0E0,0E0,0E0,0E0,0E0,0E0,0E0,0E0,0E0,0E0,0E0,0E0,0E0,0E0,0E0,0E0,0E0,0E0,0E0,0E0,0E0,0E0,0E0,0E0,0E0,0E0,0E0,0E0,0E0,0E0],"parents":[2147483647,0,0,1,1,2,2,3,3,4,4,5,5,6,6,7,7,8,8,9,9,10,10,11,11,12,12,13,13,14,14,15,15,16,16,17,17,18,18,19,19,20,20,21,21,22,22,23,23,24,24,25,25,26,26,27,27,28,28,29,29,30,30,31,31,32,32,33,33,34,34,35,35,36,36,37,37,38,38,39,39,40,40,41,41,42,42,43,43,44,44,45,45,46,46,47,47,48,48,49,49,50,50,51,51,52,52,53,53,54,54,55,55,56,56,57,57,58,58,59,59,60,60,61,61,62,62],"right_children":[2,4,6,8,10,12,14,16,18,20,22,24,26,28,30,32,34,36,38,40,42,44,46,48,50,52,54,56,58,60,62,64,66,68,70,72,74,76,78,80,82,84,86,88,90,92,94,96,98,100,102,104,106,108,110,112,114,116,118,120,122,124,126,-1,-1,-1,-1,-1,-1,-1,-1,-1,-1,-1,-1,-1,-1,-1,-1,-1,-1,-1,-1,-1,-1,-1,-1,-1,-1,-1,-1,-1,-1,-1,-1,-1,-1,-1,-1,-1,-1,-1,-1,-1,-1,-1,-1,-1,-1,-1,-1,-1,-1,-1,-1,-1,-1,-1,-1,-1,-1,-1,-1,-1,-1,-1,-1],"split_conditions":[5.7575667E-1,4.3337607E-1,3.2720217E-1,4.3417168E-1,0E0,6.366492E-1,-2.880626E-1,5.4656416E-1,1.9783695E-1,2.5767082E-1,-2.113387E-2,5.9843138E-2,-3.874441E-1,6.0382915E-1,-4.297804E-1,7.2229856E-1,1.5587573E-1,5E-1,5.098039E-2,7.1806395E-1,6.579125E-1,3.3263E-1,3.785125E-1,4.27451E-1,6.857475E-2,6.15725E-1,-7.839471E-2,-4.8120525E-1,7.998483E-1,5.882033E-1,6.2117666E-1,3.827344E-1,4.246325E-1,5.593525E-1,3.9607844E-1,1.1352174E-1,5E-1,4.1568625E-1,4.7058824E-2,3.827344E-1,3.164975E-1,2.623584E-1,6.210697E-2,3.9889583E-1,3.4515834E-1,5.139739E-1,6.1572176E-1,5.4660666E-1,6.139268E-2,-3.8897622E-1,-4.615783E-1,6.836892E-1,1.2466936E-1,4.2020984E-2,7.72215E-1,6.550392E-1,7.7456E-1,7.4314E-1,-5.4029685E-1,2.5230667E-1,7.629642E-1,-2.9944804E-1,4.721587E-1,3.7834484E-2,1.0799797E-1,9.642218E-3,7.542797E-2,9.16364E-2,1.2682696E-2,7.6394104E-3,-3.1778496E-2,6.07347E-2,1.6024647E-2,5.4191023E-2,1.4033514E-1,-7.68296E-3,-4.1054614E-2,4.802032E-2,3.1132898E-3,2.4910899E-2,1.0719738E-1,-1.1821985E-2,5.1046807E-2,2.100858E-2,-1.8995998E-2,-3.865304E-4,-5.0936677E-2,4.3553036E-2,-1.4545214E-2,2.510149E-3,-4.9517523E-2,-2.7391283E-2,-6.0504925E-2,-6.1779268E-2,-8.621623E-2,2.844486E-2,1.1139518E-1,3.215322E-2,-7.6514534E-3,2.9019937E-2,-1.720569E-2,-8.448347E-3,-3.5443645E-2,-2.8446675E-3,-3.5338305E-2,5.485889E-2,-4.7459654E-3,-3.8514067E-3,-3.948928E-2,-7.483696E-2,-4.6813063E-2,-8.956542E-3,4.832929E-2,-2.296341E-2,-5.8361806E-2,-2.9132454E-2,-5.606323E-2,-5.1454987E-2,-7.766232E-2,4.021607E-3,-4.1033767E-2,-5.4219015E-2,-7.61336E-2,-4.8112113E-2,-8.138697E-2,-8.209506E-2,-9.236308E-2],"split_indices":[40,69,69,66,59,53,46,83,69,66,46,7,59,66,59,78,80,27,48,78,53,53,53,22,77,1,46,59,40,66,66,78,27,83,35,30,1,22,35,78,27,46,51,40,66,30,69,27,77,46,20,40,22,77,1,1,40,53,59,66,40,72,69,0,0,0,0,0,0,0,0,0,0,0,0,0,0,0,0,0,0,0,0,0,0,0,0,0,0,0,0,0,0,0,0,0,0,0,0,0,0,0,0,0,0,0,0,0,0,0,0,0,0,0,0,0,0,0,0,0,0,0,0,0,0,0,0],"split_type":[0,0,0,0,0,0,0,0,0,0,0,0,0,0,0,0,0,0,0,0,0,0,0,0,0,0,0,0,0,0,0,0,0,0,0,0,0,0,0,0,0,0,0,0,0,0,0,0,0,0,0,0,0,0,0,0,0,0,0,0,0,0,0,0,0,0,0,0,0,0,0,0,0,0,0,0,0,0,0,0,0,0,0,0,0,0,0,0,0,0,0,0,0,0,0,0,0,0,0,0,0,0,0,0,0,0,0,0,0,0,0,0,0,0,0,0,0,0,0,0,0,0,0,0,0,0,0],"sum_hessian":[1.626268E5,9.918085E4,6.344594E4,5.613671E4,4.304414E4,2.5717213E4,3.7728727E4,2.9457605E4,2.6679105E4,2.4337674E4,1.8706465E4,1.3565511E4,1.2151702E4,1.7976678E4,1.975205E4,2.561437E4,3.843235E3,1.1362847E4,1.5316259E4,8.321509E3,1.6016166E4,9.14243E3,9.564035E3,9.331995E3,4.2335156E3,6.8244634E3,5.3272383E3,6.8837695E3,1.1092908E4,6.0943433E3,1.3657707E4,2.0394223E4,5.220147E3,8.285253E2,3.0147097E3,8.655938E3,2.706909E3,4.1111934E3,1.1205065E4,6.415197E3,1.9063118E3,1.2851962E4,3.1642036E3,4.312672E3,4.829758E3,4.0421914E3,5.521844E3,4.568439E3,4.763556E3,1.2374708E3,2.996045E3,4.180227E3,2.6442363E3,3.4821792E3,1.8450593E3,3.0688953E3,3.8148745E3,5.9502446E3,5.1426636E3,2.1525042E3,3.9418389E3,4.9897656E3,8.667941E3,8.0818936E3,1.2312329E4,4.3948105E3,8.2533624E2,3.089097E2,5.1961566E2,1.3853021E3,1.6294076E3,1.7913453E3,6.864593E3,1.9706075E3,7.3630133E2,2.0315831E3,2.0796099E3,1.8079056E3,9.39716E3,2.7577915E3,3.6574053E3,1.5634926E3,3.4281927E2,8.98927E3,3.862693E3,6.071224E2,2.5570813E3,2.8935771E3,1.4190946E3,2.0812432E3,2.748515E3,1.4815215E3,2.56067E3,1.963656E3,3.5581882E3,3.531903E3,1.036536E3,1.2491531E3,3.5144033E3,7.1900354E2,5.184672E2,1.1448785E3,1.8511664E3,1.2508436E3,2.9293833E3,7.113764E2,1.93286E3,6.354625E2,2.8467166E3,1.413548E3,4.3151135E2,2.6906377E3,3.7825772E2,2.5239456E3,1.2909287E3,3.3637656E3,2.5864788E3,2.0770718E3,3.065592E3,4.8130804E2,1.671196E3,1.4230715E3,2.5187676E3,6.488344E2,4.3409316E3,2.1730344E3,6.4949067E3],"tree_param":{"num_deleted":"0","num_feature":"92","num_nodes":"127","size_leaf_vector":"1"}},{"base_weights":[-2.201803E-2,1.7802149E-1,-4.477224E-1,-1.340625E-1,3.044111E-1,-5.731827E-2,-6.60611E-1,-3.1547643E-2,-5.0294334E-1,3.7527525E-1,-1.2677422E-1,6.53979E-2,-4.057007E-1,-4.8622677E-1,-8.157214E-1,2.0119785E-1,-1.551377E-1,-3.3494708E-1,-7.0057386E-1,-3.2615068E-3,5.08564E-1,1.188457E-1,-3.460321E-1,-4.356416E-2,3.6022222E-1,-2.9176372E-1,-6.469243E-1,-2.9130304E-1,-7.5579643E-1,-5.239503E-1,-8.65112E-1,3.7692764E-1,-5.649407E-2,1.17454074E-1,-2.4228488E-1,1.9079839E-1,-4.411555E-1,-5.2869517E-1,-7.8493017E-1,-3.0910724E-1,2.8159317E-1,6.8207085E-1,1.5230002E-1,1.374569E-2,6.6531545E-1,-4.8093957E-1,-2.3385073E-1,1.5430014E-1,-2.1203841E-1,1.5497516E-1,9.8356605E-1,-4.056484E-1,-4.9226064E-2,-2.3249535E-1,-6.859038E-1,-3.5692152E-1,2.1011479E-1,-5.9828216E-1,-8.38768E-1,-4.3467503E-2,-5.86279E-1,-6.797412E-1,-9.000494E-1,-1.407043E-4,5.916805E-2,-1.8632298E-2,4.7627356E-2,3.2577563E-2,-9.952174E-3,-1.3335143E-2,-4.813861E-2,4.2569667E-2,-1.8886132E-2,-1.6959716E-2,-5.6058116E-2,8.417203E-3,-5.8043133E-2,-6.561109E-2,-8.5792035E-2,-4.314045E-2,-1.7736735E-2,1.7173989E-2,8.454446E-2,8.628619E-2,2.959904E-2,3.0660052E-2,-2.167114E-3,-6.5996014E-3,4.137786E-2,4.3822255E-2,1.6976438E-1,-5.7175983E-2,-2.2349302E-2,3.4962203E-3,-3.408738E-2,-1.781096E-3,3.31708E-2,9.989585E-4,-3.7927054E-2,3.6627173E-2,-2.682574E-2,2.0262256E-1,5.8033925E-2,1.2779388E-1,-4.2012725E-2,-2.522342E-2,7.317071E-2,5.709923E-2,-3.4704056E-2,-5.3410616E-2,-7.718169E-2,-4.385054E-2,-1.9114114E-2,4.062492E-1,1.6733339E-2,-3.9786283E-2,-7.422599E-2,-7.258796E-2,-9.286245E-2,1.3566154E-2,-6.2095124E-2,-7.861022E-2,-4.636098E-2,-3.789193E-2,-7.2622925E-2,-7.7716924E-2,-9.344231E-2],"categories":[],"categories_nodes":[],"categories_segments":[],"categories_sizes":[],"default_left":[0,0,0,0,0,0,0,0,0,0,0,0,0,0,0,0,0,0,0,0,0,0,0,0,0,0,0,0,0,0,0,0,0,0,0,0,0,0,0,0,0,0,0,0,0,0,0,0,0,0,0,0,0,0,0,0,0,0,0,0,0,0,0,0,0,0,0,0,0,0,0,0,0,0,0,0,0,0,0,0,0,0,0,0,0,0,0,0,0,0,0,0,0,0,0,0,0,0,0,0,0,0,0,0,0,0,0,0,0,0,0,0,0,0,0,0,0,0,0,0,0,0,0,0,0,0,0],"id":10,"left_children":[1,3,5,7,9,11,13,15,17,19,21,23,25,27,29,31,33,35,37,39,41,43,45,47,49,51,53,55,57,59,61,63,65,67,69,71,73,75,77,79,81,83,85,87,89,91,93,95,97,99,101,103,105,107,109,111,113,115,117,119,121,123,125,-1,-1,-1,-1,-1,-1,-1,-1,-1,-1,-1,-1,-1,-1,-1,-1,-1,-1,-1,-1,-1,-1,-1,-1,-1,-1,-1,-1,-1,-1,-1,-1,-1,-1,-1,-1,-1,-1,-1,-1,-1,-1,-1,-1,-1,-1,-1,-1,-1,-1,-1,-1,-1,-1,-1,-1,-1,-1,-1,-1,-1,-1,-1,-1],"loss_changes":[1.3788733E4,4.3450947E3,4.302121E3,1.2007618E3,2.3957466E3,7.809851E2,9.056553E2,7.1481335E2,2.2903174E2,3.3975283E3,5.960738E2,4.3400662E2,1.3059601E2,8.284873E2,2.5500098E2,3.9032388E2,3.856064E2,2.086101E2,4.5575073E1,1.5279457E3,3.078372E3,2.9983698E2,8.838928E1,3.288797E2,4.6627405E2,8.930173E1,2.448761E1,3.0127838E2,8.598706E1,7.690637E1,9.75625E1,4.1636316E2,2.4186147E2,1.7779152E2,3.202868E2,5.6115013E1,1.0067212E2,3.3256287E1,1.942334E1,1.3618463E2,5.623194E2,2.3374092E3,4.3788617E2,1.3973402E2,1.9667188E2,6.1927246E1,9.1923416E1,1.3854778E2,1.9785535E2,2.4547057E2,3.7841626E2,5.4174316E1,1.6417479E2,1.2409451E1,1.7768127E1,1.0940759E2,1.740195E2,6.569E1,4.32688E1,3.0708967E1,5.537146E1,3.3400024E1,5.3135742E1,0E0,0E0,0E0,0E0,0E0,0E0,0E0,0E0,0E0,0E0,0E0,0E0,0E0,0E0,0E0,0E0,0E0,0E0,0E0,0E0,0E0,0E0,0E0,0E0,0E0,0E0,0E0,0E0,0E0,0E0,0E0,0E0,0E0,0E0,0E0,0E0,0E0,0E0,0E0,0E0,0E0,0E0,0E0,0E0,0E0,0E0,0E0,0E0,0E0,0E0,0E0,0E0,0E0,0E0,0E0,0E0,0E0,0E0,0E0,0E0,0E0,0E0,0E0,0E0],"parents":[2147483647,0,0,1,1,2,2,3,3,4,4,5,5,6,6,7,7,8,8,9,9,10,10,11,11,12,12,13,13,14,14,15,15,16,16,17,17,18,18,19,19,20,20,21,21,22,22,23,23,24,24,25,25,26,26,27,27,28,28,29,29,30,30,31,31,32,32,33,33,34,34,35,35,36,36,37,37,38,38,39,39,40,40,41,41,42,42,43,43,44,44,45,45,46,46,47,47,48,48,49,49,50,50,51,51,52,52,53,53,54,54,55,55,56,56,57,57,58,58,59,59,60,60,61,61,62,62],"right_children":[2,4,6,8,10,12,14,16,18,20,22,24,26,28,30,32,34,36,38,40,42,44,46,48,50,52,54,56,58,60,62,64,66,68,70,72,74,76,78,80,82,84,86,88,90,92,94,96,98,100,102,104,106,108,110,112,114,116,118,120,122,124,126,-1,-1,-1,-1,-1,-1,-1,-1,-1,-1,-1,-1,-1,-1,-1,-1,-1,-1,-1,-1,-1,-1,-1,-1,-1,-1,-1,-1,-1,-1,-1,-1,-1,-1,-1,-1,-1,-1,-1,-1,-1,-1,-1,-1,-1,-1,-1,-1,-1,-1,-1,-1,-1,-1,-1,-1,-1,-1,-1,-1,-1,-1,-1,-1],"split_conditions":[4.9777E-1,1E0,4.1526082E-1,6.1355084E-1,8.170984E-1,7.3776E-1,6.7566586E-1,2.4705882E-1,5.1060915E-1,2.8498048E-1,4.5931834E-1,6.790233E-1,8.348917E-1,5.4753333E-1,3.1016305E-1,2.7123916E-1,2.2602609E-1,1.9883417E-1,6.36915E-1,5.384217E-1,4.5151174E-1,4.6854833E-1,3.72549E-1,6.5647584E-1,6.733417E-1,7.777117E-1,3.2773834E-1,6.550392E-1,2.2758806E-1,2.3705217E-1,3.2720217E-1,3.6449584E-1,4.6541584E-1,5.034558E-1,4.884675E-1,3.6699608E-1,-9.098276E-2,1.29145E-1,2.7123916E-1,4.8328668E-1,4.590225E-1,2.7123916E-1,4.509804E-1,4.6350166E-1,4.6663666E-1,4.3939084E-1,1.6204914E-1,5E-1,6.6485167E-1,7.3333335E-1,2.2352941E-1,2.4621917E-1,7.789983E-1,-2.4351943E-1,4.337739E-1,3.870561E-1,1E0,6.0288584E-1,4.9253833E-1,5.231375E-1,2.2352941E-1,2.7574784E-1,3.9341304E-1,-1.407043E-4,5.916805E-2,-1.8632298E-2,4.7627356E-2,3.2577563E-2,-9.952174E-3,-1.3335143E-2,-4.813861E-2,4.2569667E-2,-1.8886132E-2,-1.6959716E-2,-5.6058116E-2,8.417203E-3,-5.8043133E-2,-6.561109E-2,-8.5792035E-2,-4.314045E-2,-1.7736735E-2,1.7173989E-2,8.454446E-2,8.628619E-2,2.959904E-2,3.0660052E-2,-2.167114E-3,-6.5996014E-3,4.137786E-2,4.3822255E-2,1.6976438E-1,-5.7175983E-2,-2.2349302E-2,3.4962203E-3,-3.408738E-2,-1.781096E-3,3.31708E-2,9.989585E-4,-3.7927054E-2,3.6627173E-2,-2.682574E-2,2.0262256E-1,5.8033925E-2,1.2779388E-1,-4.2012725E-2,-2.522342E-2,7.317071E-2,5.709923E-2,-3.4704056E-2,-5.3410616E-2,-7.718169E-2,-4.385054E-2,-1.9114114E-2,4.062492E-1,1.6733339E-2,-3.9786283E-2,-7.422599E-2,-7.258796E-2,-9.286245E-2,1.3566154E-2,-6.2095124E-2,-7.861022E-2,-4.636098E-2,-3.789193E-2,-7.2622925E-2,-7.7716924E-2,-9.344231E-2],"split_indices":[79,90,82,82,78,79,79,22,83,78,81,27,79,82,56,79,56,79,82,81,80,1,61,40,1,1,82,1,80,69,69,78,1,83,66,80,59,40,79,81,1,79,22,27,27,1,22,1,53,22,22,82,27,21,43,48,24,82,83,82,61,43,43,0,0,0,0,0,0,0,0,0,0,0,0,0,0,0,0,0,0,0,0,0,0,0,0,0,0,0,0,0,0,0,0,0,0,0,0,0,0,0,0,0,0,0,0,0,0,0,0,0,0,0,0,0,0,0,0,0,0,0,0,0,0,0,0],"split_type":[0,0,0,0,0,0,0,0,0,0,0,0,0,0,0,0,0,0,0,0,0,0,0,0,0,0,0,0,0,0,0,0,0,0,0,0,0,0,0,0,0,0,0,0,0,0,0,0,0,0,0,0,0,0,0,0,0,0,0,0,0,0,0,0,0,0,0,0,0,0,0,0,0,0,0,0,0,0,0,0,0,0,0,0,0,0,0,0,0,0,0,0,0,0,0,0,0,0,0,0,0,0,0,0,0,0,0,0,0,0,0,0,0,0,0,0,0,0,0,0,0,0,0,0,0,0,0],"sum_hessian":[1.6191806E5,1.1015605E5,5.1762016E4,3.1752365E4,7.840368E4,1.8266113E4,3.3495902E4,2.4847998E4,6.904367E3,6.733714E4,1.1066543E4,1.3508586E4,4.7575273E3,1.5770224E4,1.7725678E4,8.617967E3,1.6230032E4,3.7334421E3,3.170925E3,1.7536084E4,4.9801055E4,5.21971E3,5.8468325E3,9.863905E3,3.6446802E3,3.2327935E3,1.5247339E3,9.153487E3,6.6167354E3,2.567859E3,1.5157819E4,5.1235576E3,3.4944094E3,3.9316597E3,1.2298372E4,6.273217E2,3.1061204E3,1.0463073E3,2.1246177E3,8.456421E3,9.079662E3,3.348995E4,1.6311106E4,4.378616E3,8.4109393E2,2.653042E3,3.1937908E3,4.5363184E3,5.3275874E3,2.7428098E3,9.018703E2,2.199388E3,1.0334054E3,1.3168002E2,1.3930538E3,8.094484E3,1.0590038E3,2.2857153E3,4.33102E3,2.9505096E2,2.2728079E3,2.407033E3,1.2750786E4,1.8555638E3,3.2679937E3,2.810239E3,6.841704E2,2.0055762E3,1.9260835E3,8.450102E3,3.8482705E3,3.8746994E2,2.398518E2,9.495006E2,2.1566196E3,8.140126E1,9.64906E2,7.7204175E2,1.352576E3,4.3841953E3,4.072225E3,7.6002383E3,1.4794246E3,2.2808234E4,1.0681715E4,8.643846E3,7.667261E3,3.6515576E3,7.270586E2,6.9059955E2,1.5049443E2,1.9602853E3,6.927568E2,9.0965546E2,2.2841353E3,2.3029888E3,2.2333298E3,2.289217E3,3.03837E3,1.8295509E3,9.1325885E2,2.5038986E2,6.5148047E2,1.8009363E1,2.1813787E3,8.2072906E2,2.1267632E2,1.5932839E1,1.15747185E2,5.0608386E2,8.8697003E2,5.423718E3,2.6707664E3,1.0599299E1,1.0484045E3,9.5713354E2,1.3285818E3,1.9235293E3,2.4074907E3,2.257812E2,6.9269745E1,8.6247015E2,1.4103376E3,3.2341034E2,2.0836228E3,2.7923203E3,9.958466E3],"tree_param":{"num_deleted":"0","num_feature":"92","num_nodes":"127","size_leaf_vector":"1"}},{"base_weights":[-2.3066815E-2,1.5716931E-1,-4.1542006E-1,3.3143857E-1,-3.2749888E-2,-9.1229506E-2,-6.555267E-1,7.7575403E-1,2.5699988E-1,1.1632959E-1,-2.9328978E-1,3.0794244E-2,-5.048514E-1,-4.6788886E-1,-8.004493E-1,-1.893051E-2,1.0213629E0,4.2226702E-1,7.5744435E-2,2.6562297E-1,-1.9043136E-1,-1.02512136E-1,-4.86673E-1,2.0077755E-1,-1.3310163E-1,-2.133826E-1,-5.978349E-1,-2.9295546E-1,-7.118395E-1,-4.467149E-1,-8.4758955E-1,-4.882373E-1,2.6680094E-1,1.5018158E0,1.7243783E-3,2.828638E-1,7.451098E-1,1.9489704E-1,-1.2869918E-1,5.2823764E-1,8.9760244E-2,-5.953454E-2,-3.8371494E-1,2.7169492E-2,-2.8630522E-1,-3.8319555E-1,-7.1923506E-1,-1.059769E-2,4.0459606E-1,5.769308E-2,-2.6510486E-1,5.674024E-1,-2.711625E-1,-2.2644788E-1,-6.5425295E-1,-3.4715882E-1,2.5225553E-1,-5.1654446E-1,-8.0933785E-1,-2.3343684E-1,-6.963685E-1,-6.501122E-1,-8.841713E-1,-1.231307E-1,-4.183369E-2,-3.550414E-3,9.285306E-2,1.7258139E-1,1.1309617E-1,7.779503E-2,-2.7520493E-2,4.78363E-2,1.2275632E-2,5.0136548E-2,1.4051925E-1,5.5288047E-2,1.1721182E-2,1.2700959E-2,-1.9867903E-2,3.8621318E-2,1.1527502E-1,-1.3065364E-4,7.0428364E-2,1.91956E-2,-1.7915407E-2,-3.1753566E-2,-6.500139E-2,-7.448442E-3,3.430567E-2,-1.1201352E-2,-4.693606E-2,-1.2587229E-2,-5.013107E-2,-6.391185E-2,-8.6111836E-2,-2.9195527E-2,8.225157E-3,1.1613624E-2,6.965262E-2,-3.072992E-2,1.8849816E-2,-1.741738E-2,-5.000601E-2,1.30665E-1,7.493447E-3,-4.6512257E-2,-1.0235476E-2,-1.5507307E-3,-4.4745266E-2,-4.9762797E-2,-7.284291E-2,-3.9718486E-2,-5.8422578E-3,1.5963708E-1,1.1726144E-2,-3.2385617E-2,-7.988291E-2,-5.896005E-2,-8.770555E-2,-6.044494E-3,-7.62301E-2,-8.528393E-2,-5.8068216E-2,-7.201579E-2,-3.5370316E-2,-7.446818E-2,-9.2197135E-2],"categories":[],"categories_nodes":[],"categories_segments":[],"categories_sizes":[],"default_left":[0,0,0,0,0,0,0,0,0,0,0,0,0,0,0,0,0,0,0,0,0,0,0,0,0,0,0,0,0,0,0,0,0,0,0,0,0,0,0,0,0,0,0,0,0,0,0,0,0,0,0,0,0,0,0,0,0,0,0,0,0,0,0,0,0,0,0,0,0,0,0,0,0,0,0,0,0,0,0,0,0,0,0,0,0,0,0,0,0,0,0,0,0,0,0,0,0,0,0,0,0,0,0,0,0,0,0,0,0,0,0,0,0,0,0,0,0,0,0,0,0,0,0,0,0,0,0],"id":11,"left_children":[1,3,5,7,9,11,13,15,17,19,21,23,25,27,29,31,33,35,37,39,41,43,45,47,49,51,53,55,57,59,61,63,65,67,69,71,73,75,77,79,81,83,85,87,89,91,93,95,97,99,101,103,105,107,109,111,113,115,117,119,121,123,125,-1,-1,-1,-1,-1,-1,-1,-1,-1,-1,-1,-1,-1,-1,-1,-1,-1,-1,-1,-1,-1,-1,-1,-1,-1,-1,-1,-1,-1,-1,-1,-1,-1,-1,-1,-1,-1,-1,-1,-1,-1,-1,-1,-1,-1,-1,-1,-1,-1,-1,-1,-1,-1,-1,-1,-1,-1,-1,-1,-1,-1,-1,-1,-1],"loss_changes":[1.1389124E4,3.6525527E3,3.9460947E3,1.9032397E3,2.0511948E3,1.0887881E3,7.916094E2,1.6117739E3,1.4765906E3,1.5383867E3,7.0903406E2,4.6412943E2,1.330586E2,5.4152075E2,2.736162E2,2.6169656E2,3.0902715E3,1.1601997E3,5.727505E2,1.0434586E3,2.7819293E2,2.3064081E2,2.2941211E2,3.5232437E2,2.1363362E2,5.3844772E1,7.790515E1,2.186153E2,1.0051123E2,1.0283203E2,1.0415918E2,3.7844406E1,2.427009E2,3.542334E2,4.3472964E2,5.636582E2,1.2502627E3,4.130327E2,1.5494908E2,8.033091E2,7.5737604E2,1.9730753E2,7.8041626E1,1.8223318E2,1.2766733E2,2.0076666E2,3.2845825E1,1.04923874E2,3.5051727E2,1.6569305E2,1.0702432E2,2.9873672E1,3.62566E1,2.2966703E1,3.7202393E1,9.71344E1,1.21247284E2,9.589969E1,5.2065918E1,9.5529526E1,1.5627167E1,4.6869385E1,6.379492E1,0E0,0E0,0E0,0E0,0E0,0E0,0E0,0E0,0E0,0E0,0E0,0E0,0E0,0E0,0E0,0E0,0E0,0E0,0E0,0E0,0E0,0E0,0E0,0E0,0E0,0E0,0E0,0E0,0E0,0E0,0E0,0E0,0E0,0E0,0E0,0E0,0E0,0E0,0E0,0E0,0E0,0E0,0E0,0E0,0E0,0E0,0E0,0E0,0E0,0E0,0E0,0E0,0E0,0E0,0E0,0E0,0E0,0E0,0E0,0E0,0E0,0E0,0E0,0E0],"parents":[2147483647,0,0,1,1,2,2,3,3,4,4,5,5,6,6,7,7,8,8,9,9,10,10,11,11,12,12,13,13,14,14,15,15,16,16,17,17,18,18,19,19,20,20,21,21,22,22,23,23,24,24,25,25,26,26,27,27,28,28,29,29,30,30,31,31,32,32,33,33,34,34,35,35,36,36,37,37,38,38,39,39,40,40,41,41,42,42,43,43,44,44,45,45,46,46,47,47,48,48,49,49,50,50,51,51,52,52,53,53,54,54,55,55,56,56,57,57,58,58,59,59,60,60,61,61,62,62],"right_children":[2,4,6,8,10,12,14,16,18,20,22,24,26,28,30,32,34,36,38,40,42,44,46,48,50,52,54,56,58,60,62,64,66,68,70,72,74,76,78,80,82,84,86,88,90,92,94,96,98,100,102,104,106,108,110,112,114,116,118,120,122,124,126,-1,-1,-1,-1,-1,-1,-1,-1,-1,-1,-1,-1,-1,-1,-1,-1,-1,-1,-1,-1,-1,-1,-1,-1,-1,-1,-1,-1,-1,-1,-1,-1,-1,-1,-1,-1,-1,-1,-1,-1,-1,-1,-1,-1,-1,-1,-1,-1,-1,-1,-1,-1,-1,-1,-1,-1,-1,-1,-1,-1,-1,-1,-1,-1],"split_conditions":[4.9141583E-1,4.4768333E-1,4.3496E-1,1.2857333E-1,2.5679415E-1,7.619225E-1,6.417525E-1,3.9183837E-1,4.5490196E-1,5.1529336E-1,5.531925E-1,6.9039E-1,3.6351085E-1,5.4753333E-1,2.8408045E-1,5.1970834E-1,6.06062E-1,3.9126334E-1,6.039216E-1,3.6515653E-1,5.510975E-1,-2.318782E-2,5.2440584E-1,5E-1,2.3259565E-1,2.7034333E-1,2.4026957E-1,6.371433E-1,4.6645218E-1,5.260917E-1,3.2720217E-1,8.21375E-2,3.2866088E-1,1.077E-1,3.947025E-1,3.7662417E-1,4.06135E-1,5.4376375E-2,6.713412E-2,5.493848E-1,5.6086737E-1,2.392157E-1,5.883475E-1,4.4925332E-1,-1.590234E-1,-1.7235161E-1,6.36915E-1,2.2618286E-1,5E-1,1.2913135E-1,7.686275E-1,1.547106E-1,5.131717E-1,4.1960785E-1,3.6198914E-1,5.573483E-1,1.3398479E-1,5.12655E-1,4.3035653E-1,8.2587165E-1,2.2352941E-1,5.555087E-1,3.9341304E-1,-1.231307E-1,-4.183369E-2,-3.550414E-3,9.285306E-2,1.7258139E-1,1.1309617E-1,7.779503E-2,-2.7520493E-2,4.78363E-2,1.2275632E-2,5.0136548E-2,1.4051925E-1,5.5288047E-2,1.1721182E-2,1.2700959E-2,-1.9867903E-2,3.8621318E-2,1.1527502E-1,-1.3065364E-4,7.0428364E-2,1.91956E-2,-1.7915407E-2,-3.1753566E-2,-6.500139E-2,-7.448442E-3,3.430567E-2,-1.1201352E-2,-4.693606E-2,-1.2587229E-2,-5.013107E-2,-6.391185E-2,-8.6111836E-2,-2.9195527E-2,8.225157E-3,1.1613624E-2,6.965262E-2,-3.072992E-2,1.8849816E-2,-1.741738E-2,-5.000601E-2,1.30665E-1,7.493447E-3,-4.6512257E-2,-1.0235476E-2,-1.5507307E-3,-4.4745266E-2,-4.9762797E-2,-7.284291E-2,-3.9718486E-2,-5.8422578E-3,1.5963708E-1,1.1726144E-2,-3.2385617E-2,-7.988291E-2,-5.896005E-2,-8.770555E-2,-6.044494E-3,-7.62301E-2,-8.528393E-2,-5.8068216E-2,-7.201579E-2,-3.5370316E-2,-7.446818E-2,-9.2197135E-2],"split_indices":[79,82,82,79,79,79,79,78,22,83,82,66,82,82,56,81,78,1,35,56,83,72,83,27,56,82,69,1,43,82,69,79,78,79,81,66,27,77,77,57,70,22,82,1,46,72,82,78,1,61,22,25,83,22,56,27,56,83,69,79,61,70,43,0,0,0,0,0,0,0,0,0,0,0,0,0,0,0,0,0,0,0,0,0,0,0,0,0,0,0,0,0,0,0,0,0,0,0,0,0,0,0,0,0,0,0,0,0,0,0,0,0,0,0,0,0,0,0,0,0,0,0,0,0,0,0,0],"split_type":[0,0,0,0,0,0,0,0,0,0,0,0,0,0,0,0,0,0,0,0,0,0,0,0,0,0,0,0,0,0,0,0,0,0,0,0,0,0,0,0,0,0,0,0,0,0,0,0,0,0,0,0,0,0,0,0,0,0,0,0,0,0,0,0,0,0,0,0,0,0,0,0,0,0,0,0,0,0,0,0,0,0,0,0,0,0,0,0,0,0,0,0,0,0,0,0,0,0,0,0,0,0,0,0,0,0,0,0,0,0,0,0,0,0,0,0,0,0,0,0,0,0,0,0,0,0,0],"sum_hessian":[1.6105197E5,1.1035744E5,5.0694523E4,5.7549477E4,5.2807965E4,2.1570943E4,2.912358E4,8.256716E3,4.9292758E4,3.358905E4,1.9218914E4,1.6657648E4,4.913294E3,1.2693265E4,1.6430316E4,1.9495941E3,6.307122E3,2.578285E4,2.3509908E4,2.259347E4,1.0995579E4,9.675402E3,9.543511E3,8.1768594E3,8.48079E3,1.1891246E3,3.7241694E3,7.393614E3,5.299651E3,1.9333293E3,1.4496986E4,7.375227E2,1.2120714E3,4.2867407E3,2.0203813E3,1.8008621E4,7.77423E3,1.4853265E4,8.656644E3,9.060894E3,1.3532577E4,6.5565894E3,4.4389897E3,5.6732764E3,4.0021265E3,6.606588E3,2.936923E3,4.0144836E3,4.1623755E3,3.4683186E3,5.012471E3,8.132691E1,1.1077977E3,4.91797E2,3.2323723E3,6.72536E3,6.682536E2,1.766847E3,3.5328037E3,1.0436653E3,8.8966406E2,2.268712E3,1.2228274E4,6.1984722E1,6.75538E2,8.326358E2,3.7943564E2,2.6702441E3,1.6164966E3,5.3078766E2,1.4895938E3,8.107262E3,9.901358E3,5.6789585E3,2.0952715E3,2.6474338E3,1.2205831E4,1.8598546E3,6.796789E3,7.3834033E3,1.6774896E3,1.1786868E4,1.745709E3,2.1131838E3,4.4434053E3,3.5571719E3,8.8181805E2,4.2926475E3,1.3806289E3,2.0509636E3,1.9511627E3,2.0791218E3,4.527466E3,1.8805476E3,1.0563754E3,9.9555304E2,3.0189307E3,2.0943347E3,2.068041E3,9.146825E2,2.553636E3,3.615112E3,1.3973593E3,3.185534E1,4.9471573E1,5.146778E2,5.9312E2,2.5217542E2,2.3962158E2,1.0413151E3,2.1910574E3,5.731886E3,9.93474E2,6.0001595E1,6.08252E2,1.0513439E3,7.155031E2,8.345326E2,2.6982712E3,7.872647E2,2.5640063E2,3.7546283E2,5.1420123E2,1.8339048E3,4.3480725E2,2.6116086E3,9.616666E3],"tree_param":{"num_deleted":"0","num_feature":"92","num_nodes":"127","size_leaf_vector":"1"}},{"base_weights":[-2.1780582E-2,1.3712369E-1,-4.0144402E-1,3.0845854E-1,-2.2268167E-2,-4.8730623E-2,-5.7112706E-1,5.0055736E-1,1.6619977E-1,2.6107407E-1,-1.3782711E-1,1.294585E-1,-2.3123853E-1,-2.908034E-1,-7.156506E-1,4.1448095E-1,9.8191446E-1,3.2227963E-1,1.5444284E-2,4.5488632E-1,9.840218E-3,-4.6509385E-2,-4.09137E-1,1.6811648E-2,5.7361764E-1,-1.208665E-1,-4.4470248E-1,-2.0441827E-1,-5.553841E-1,-5.1648206E-1,-8.331408E-1,5.6604946E-1,1.120304E-1,7.2231686E-1,1.8219873E0,7.195078E-1,2.3897982E-1,-2.9854523E-2,4.8161328E-1,7.282187E-1,2.448865E-1,2.658217E-1,-3.4323645E-1,1.6369335E-1,-1.6921835E-1,-2.023756E-1,-6.189728E-1,-1.00471936E-1,3.1599188E-1,1.3363186E0,2.9497966E-1,-2.4449289E-1,2.4415708E-1,-7.093217E-1,-3.5545817E-1,-3.9238355E-1,-9.163029E-2,-4.6527272E-1,-7.8089684E-1,-3.8391998E-1,-7.154589E-1,-7.086395E-1,-8.783994E-1,7.860342E-2,3.6261834E-2,2.5591193E-2,-1.3211208E-2,9.9839434E-2,3.221177E-2,1.1478292E-1,2.411602E-1,5.7515234E-2,1.6749181E-1,1.7327052E-2,6.461643E-2,1.3320208E-2,-1.4460881E-2,3.2690577E-2,1.6003405E-1,1.2504163E-1,5.7778027E-2,3.2503597E-2,-2.7343435E-2,6.794738E-2,2.2262323E-4,5.0041743E-2,-4.2223975E-2,3.1720072E-2,-1.0401034E-2,4.3749582E-4,-2.5328934E-2,-4.304671E-3,-4.4066843E-2,-3.8214307E-2,-7.2217494E-2,-2.408442E-2,3.8978588E-3,2.7346084E-1,2.6809534E-2,2.2644734E-1,8.447118E-2,6.1139602E-2,-3.0503126E-3,-3.460595E-2,-2.2677165E-3,6.755241E-2,-8.028491E-3,4.584159E-2,-7.252814E-2,-6.936305E-3,-4.6066344E-2,-2.724312E-2,-5.653701E-2,-1.6826179E-2,2.2281427E-2,-5.7930656E-2,-2.0352041E-2,-9.05422E-2,-6.886796E-2,-7.4655E-3,-5.073523E-2,-6.349769E-2,-8.158693E-2,-5.5195194E-2,-7.978662E-2,-9.201359E-2,-7.937885E-2],"categories":[],"categories_nodes":[],"categories_segments":[],"categories_sizes":[],"default_left":[0,0,0,0,0,0,0,0,0,0,0,0,0,0,0,0,0,0,0,0,0,0,0,0,0,0,0,0,0,0,0,0,0,0,0,0,0,0,0,0,0,0,0,0,0,0,0,0,0,0,0,0,0,0,0,0,0,0,0,0,0,0,0,0,0,0,0,0,0,0,0,0,0,0,0,0,0,0,0,0,0,0,0,0,0,0,0,0,0,0,0,0,0,0,0,0,0,0,0,0,0,0,0,0,0,0,0,0,0,0,0,0,0,0,0,0,0,0,0,0,0,0,0,0,0,0,